tree
version=v3
num_class=1
num_tree_per_iteration=1
label_index=0
max_feature_idx=16
objective=binary sigmoid:1
feature_names=Column_0 Column_1 Column_2 Column_3 Column_4 Column_5 Column_6 Column_7 Column_8 Column_9 Column_10 Column_11 Column_12 Column_13 Column_14 Column_15 Column_16
feature_infos=[0:9] [0:18] [0:15] [0:99] [0:1] [0:106.5938] [0:46] [0:1] [0:1] [0:1] [0:1] [0:1] [0:1] [0:1] [0:1] [0:1] [0:1]
tree_sizes=3295 3340 3319 3341 3324 3341 3341 3353 3356 3360 3353 3369 3338 3366 3341 3358 3359 3373 3356 3369 3363 3341 3350 3352 3362 3367 3389 3380 3360 3356 3351 3381 3392 3346 3356 3367 3360 3350 3344 3358 3362 3353 3374 3373 3367 3345 3348 3333 3351 3351 3341 3345 3340 3351 3335 3330 3370 3356

Tree=0
num_leaves=31
num_cat=0
split_feature=0 2 5 3 5 1 5 1 2 4 6 3 1 5 3 2 2 6 3 3 5 3 6 3 3 1 5 15 2 6
split_gain=4304.15 1726.77 428.509 381.464 278.214 166.336 151.658 91.799 84.8474 77.9019 61.0696 70.3357 59.9102 51.8794 51.2106 30.3502 29.2175 26.4179 23.6614 21.8265 21.6874 21.3122 20.7618 21.9247 16.7124 16.1594 14.8891 14.2985 17.1483 14.2316
threshold=1.0000000180025095e-35 2.5000000000000004 1.9220230000000003 22.500000000000004 8.573199500000003 1.0000000180025095e-35 5.9839090000000015 1.0000000180025095e-35 1.5000000000000002 1.0000000180025095e-35 3.5000000000000004 23.500000000000004 1.0000000180025095e-35 1.9060675 20.500000000000004 1.5000000000000002 1.5000000000000002 7.5000000000000009 24.500000000000004 24.500000000000004 1.0874690000000002 20.500000000000004 4.5000000000000009 29.500000000000004 28.500000000000004 1.0000000180025095e-35 4.0919365000000001 1.0000000180025095e-35 2.5000000000000004 11.500000000000002
decision_type=2 2 2 2 2 2 2 2 2 2 2 2 2 2 2 2 2 2 2 2 2 2 2 2 2 2 2 2 2 2
left_child=4 3 -3 6 12 8 15 17 -6 14 11 -4 27 24 -10 -2 -8 -5 -19 26 -17 -18 -16 -24 -14 -22 -12 28 -1 -11
right_child=1 2 10 7 5 -7 16 -9 9 29 19 -13 13 -15 22 20 21 18 -20 -21 25 -23 23 -25 -26 -27 -28 -29 -30 -31
leaf_value=0.065590391541555798 0.04447532990600328 0.14851871100017092 0.39646581276494464 0.062401867032127079 0.039620153200460251 0.39378662011326243 0.2089223271471885 0.22216519368264637 0.37064813812146136 0.08583862512931173 0.36637641836912882 0.20351191868553892 0.061818621212088892 0.29022196623271823 0.12188123904863404 0.037453997439525683 0.42896783327299703 0.23063065735056246 0.10578240063679062 0.39286108083359039 0.21663840198403334 0.3333797564600004 0.28308918404455058 0.082702584445714489 0.2614345031201602 0.40766970930834312 0.43567667153666645 0.051258651102430747 0.1351078357232903 0.21624109731763752
leaf_weight=135.05639657378197 14.242310911417006 59.424814492464066 74.649353742599487 136.28418199717999 46.164731919765472 35.360220193862915 9.3311692178249341 68.755983710289001 27.011279314756393 49.602531105279922 31.922421008348465 25.292379721999168 28.730178907513618 21.363466367125511 20.135680943727493 5.6478129476308814 63.599284932017326 19.153452605009079 73.176011234521866 148.56203623116016 24.555708467960361 36.833562701940536 30.940192669630051 6.6300412863492957 4.9111416935920706 5.4022558629512778 1076.0311450660229 507.07537986338139 48.129188597202301 10.067840471863745
leaf_count=550 58 242 304 555 188 144 38 280 110 202 130 103 117 87 82 23 259 78 298 605 100 150 126 27 20 22 4382 2065 196 41
internal_value=0 0.885874 1.43138 -0.804289 -1.70836 -0.736226 0.442787 -1.47365 -1.10586 -0.728548 1.54653 0.794176 -2.00304 -0.998654 -0.112091 -1.00367 1.09968 -1.77835 -1.36535 1.60637 -0.51017 1.25694 -0.644023 -0.204903 -1.77257 -0.171304 1.65463 -2.08308 -1.84362 -1.60376
internal_weight=0 1872.86 1415.88 456.982 971.178 225.913 159.612 297.37 190.552 144.388 1356.46 99.9417 745.266 55.0048 84.7172 49.8481 109.764 228.614 92.3295 1256.52 35.6058 100.433 57.7059 37.5702 33.6413 29.958 1107.95 690.261 183.186 59.6704
internal_count=11582 7627 5766 1861 3955 920 650 1211 776 588 5524 407 3035 224 345 203 447 931 376 5117 145 409 235 153 137 122 4512 2811 746 243
shrinkage=1


Tree=1
num_leaves=31
num_cat=0
split_feature=0 2 15 3 5 1 5 3 1 2 5 4 3 6 1 5 2 2 1 6 2 5 3 5 1 3 1 3 5 3
split_gain=3476.85 1436.85 359.775 303.608 216.382 151.14 124.638 75.7455 71.9883 52.0908 47.3958 44.1445 35.7274 36.7427 34.5573 35.0921 29.7159 23.5711 21.5061 20.5945 19.7192 19.0676 18.5592 17.1033 16.2347 15.0568 13.2654 13.8405 12.6854 12.6802
threshold=1.0000000180025095e-35 2.5000000000000004 1.0000000180025095e-35 22.500000000000004 6.4379215000000007 1.0000000180025095e-35 6.9396770000000005 22.500000000000004 1.0000000180025095e-35 1.5000000000000002 4.5490120000000012 1.0000000180025095e-35 23.500000000000004 3.5000000000000004 1.0000000180025095e-35 1.1390105000000001 1.5000000000000002 2.5000000000000004 1.0000000180025095e-35 7.5000000000000009 1.5000000000000002 1.0874690000000002 24.500000000000004 4.0919365000000001 1.0000000180025095e-35 20.500000000000004 1.5000000000000002 26.500000000000004 4.7067660000000009 36.500000000000007
decision_type=2 2 2 2 2 2 2 2 2 2 2 2 2 2 2 2 2 2 2 2 2 2 2 2 2 2 2 2 2 2
left_child=4 3 12 6 14 7 16 9 19 -6 18 -11 23 -14 -1 -16 -2 -9 -4 -5 -8 -18 -21 -3 -23 -22 27 -10 -15 -28
right_child=1 2 10 8 5 -7 20 17 26 11 -12 -13 13 28 15 -17 21 -19 -20 22 25 24 -24 -25 -26 -27 29 -29 -30 -31
leaf_value=-0.18657059006331012 -0.19889394362001026 0.086431628753029843 -0.12103339272214642 -0.18191064406843113 -0.20467491951390759 0.10512751934937255 -0.038375149808577647 -0.17342751937854828 0.064376575996272653 0.054102428263575364 0.088387310749446724 -0.10843460971869573 -0.025513137844686597 -0.027926924856872301 -0.20285810737467475 -0.032759537678592847 -0.20381641675015238 -0.075384381020583285 0.041679504402543449 -0.03366146714279443 0.14992385849671144 -0.039874321261202918 -0.14385597726806479 0.15526685340696422 0.13562347056707444 0.066658096865818015 -0.073019232812775045 -0.11316573956097227 0.12539858733497286 0.049747621156349855
leaf_weight=661.86518725752831 15.234706819057463 37.386665672063828 61.554575830698013 138.61501470208168 14.991765275597571 39.535856962203979 8.6552089452743513 110.91528704762459 5.1857475489377967 49.766399934887886 16.548312172293663 25.156520113348961 18.809407591819763 5.5572162419557563 20.210740894079208 30.329045042395592 5.7479840815067282 31.481430992484093 9.3579604178667051 19.242978036403656 59.233040332794189 28.326296150684357 74.291973739862442 1045.5955471247435 6.4762183278799048 34.288420870900154 13.828660130500792 28.645081698894501 186.04344613850117 21.483811274170876
leaf_count=2650 61 154 249 555 60 164 35 445 21 204 69 101 76 23 81 123 23 127 38 78 248 115 298 4382 27 141 56 116 775 87
internal_value=0 0.813302 1.32291 -0.718954 -1.51521 -0.756177 0.403965 -1.06378 -1.30768 -0.345193 -0.639996 -0.00471876 1.45565 1.07858 -1.80485 -1.00782 -0.798203 -1.51752 -0.99561 -1.57444 1.06031 -0.350846 -1.21186 1.52891 -0.0721685 1.19396 -0.412013 -0.859512 1.20952 0.0167109
internal_weight=0 1840.11 1380.85 459.255 984.252 271.847 157.962 232.311 301.293 89.9147 87.4608 74.9229 1293.39 210.41 712.405 50.5398 55.7852 142.397 70.9125 232.15 102.177 40.5505 93.535 1082.98 34.8025 93.5215 69.1433 33.8308 191.601 35.3125
internal_count=11582 7627 5766 1861 3955 1101 650 937 1211 365 356 305 5410 874 2854 204 226 572 287 931 424 165 376 4536 142 389 280 137 798 143
shrinkage=0.1


Tree=2
num_leaves=31
num_cat=0
split_feature=0 2 5 3 5 1 5 1 2 6 6 3 1 5 3 3 1 2 5 2 4 6 3 5 3 4 5 3 3 2
split_gain=2853.94 1207.71 310.146 245.381 177.692 110.405 103.368 58.6434 57.407 53.7911 49.0381 42.1393 37.509 35.4537 30.6075 24.2659 22.2244 29.5751 19.6029 19.2665 18.5609 17.1456 15.0135 13.894 12.6317 12.1223 11.9776 12.5884 18.4745 11.1824
threshold=1.0000000180025095e-35 2.5000000000000004 1.9220230000000003 22.500000000000004 8.573199500000003 1.0000000180025095e-35 5.9839090000000015 1.0000000180025095e-35 1.5000000000000002 4.5000000000000009 2.5000000000000004 25.500000000000004 1.0000000180025095e-35 2.0468350000000002 26.500000000000004 23.500000000000004 1.0000000180025095e-35 1.5000000000000002 14.947425000000001 1.5000000000000002 1.0000000180025095e-35 7.5000000000000009 24.500000000000004 1.0874690000000002 28.500000000000004 1.0000000180025095e-35 5.8253064999999999 37.500000000000007 26.500000000000004 1.5000000000000002
decision_type=2 2 2 2 2 2 2 2 2 2 2 2 2 2 2 2 2 2 2 2 2 2 2 2 2 2 2 2 2 2
left_child=4 3 -3 6 12 8 19 21 -6 -10 11 -4 29 24 20 -12 17 -8 -17 -2 -11 -5 -23 -21 -14 -15 -9 28 -28 -1
right_child=1 2 10 7 5 -7 16 26 9 14 15 -13 13 25 -16 18 -18 -19 -20 23 -22 22 -24 -25 -26 -27 27 -29 -30 -31
leaf_value=-0.18537558554252712 -0.17875357589666774 -0.098173590869792715 0.085067425330642682 -0.16414351415037287 -0.18469445273862592 0.10754243591277174 -0.15206102144256048 -0.12836477907791105 -0.13091249718256423 0.056378033347610296 0.14424212992495247 -0.1345887115342311 -0.16665196873246993 0.082772368330668894 -0.12211617328875742 0.064196443888480947 0.14831356933240744 0.078019582967020731 0.1294865937206609 -0.18467393356702747 -0.060111247134874216 -0.030180740487437165 -0.12912579206724559 -0.014453514260731042 -0.0010113308779548717 -0.07989383453427229 0.1067458236528281 0.036828657777727508 -0.091695281996484745 -0.15795178922930261
leaf_weight=214.32364849746227 14.413904279470442 60.336380645632744 43.572946384549141 138.25575962662697 46.764181017875671 33.84952712059021 6.2101804912090293 11.876239642500876 58.94449320435524 49.026637256145477 1020.2420176267624 10.923176839947699 29.891368433833122 12.973182976245882 18.204527899622917 71.526291564106941 43.328809723258018 55.660851687192917 128.78455863893032 5.7103979289531699 18.970854848623276 19.312082022428513 74.473005920648575 29.919034421443939 5.4421333819627753 7.0823695063590995 5.6519543081521979 24.197957158088684 27.606879755854607 485.5386431068182
leaf_count=861 58 242 185 555 188 144 25 48 237 202 4440 44 120 53 73 303 186 236 552 23 76 78 298 122 22 29 23 98 111 1950
internal_value=0 0.753621 1.23367 -0.650291 -1.36812 -0.589688 0.371097 -1.17643 -0.883383 -0.572937 1.33851 0.410397 -1.60081 -0.808639 -0.0695348 1.37994 0.933895 0.549257 1.06173 -0.812003 0.238783 -1.41755 -1.08751 -0.417351 -1.4114 0.253288 -0.369436 -0.180469 -0.579725 -1.6635
internal_weight=0 1792 1335.39 456.617 981.012 225.76 155.243 301.374 191.911 145.147 1275.05 54.4961 755.251 55.3891 86.202 1220.55 105.2 61.871 200.311 50.0433 67.9975 232.041 93.7851 35.6294 35.3335 20.0556 69.333 57.4568 33.2588 699.862
internal_count=11582 7627 5766 1861 3955 920 650 1211 776 588 5524 229 3035 224 351 5295 447 261 855 203 278 931 376 145 142 82 280 232 134 2811
shrinkage=0.1


Tree=3
num_leaves=31
num_cat=0
split_feature=0 2 15 3 5 1 5 2 1 5 3 3 2 4 1 5 6 2 5 3 5 1 2 1 3 3 14 14 6 5
split_gain=2369.82 1022.9 272.484 200.521 149.029 100.58 86.8535 56.2237 50.3709 31.5481 30.7606 27.1607 27.352 25.5145 24.2219 25.3787 21.6562 21.4366 21.0706 19.5119 17.5339 16.7681 21.0524 15.6294 15.1936 12.8768 11.0224 9.90471 9.82154 9.80531
threshold=1.0000000180025095e-35 2.5000000000000004 1.0000000180025095e-35 22.500000000000004 6.4379215000000007 1.0000000180025095e-35 7.0139115000000016 2.5000000000000004 1.5000000000000002 1.9220230000000003 24.500000000000004 20.500000000000004 1.5000000000000002 1.0000000180025095e-35 1.0000000180025095e-35 1.1390105000000001 3.5000000000000004 1.5000000000000002 14.411375000000001 22.500000000000004 4.0919365000000001 1.0000000180025095e-35 1.5000000000000002 1.0000000180025095e-35 26.500000000000004 24.500000000000004 1.0000000180025095e-35 1.0000000180025095e-35 3.5000000000000004 16.602270000000004
decision_type=2 2 2 2 2 2 2 2 2 2 2 2 2 2 2 2 2 2 2 2 2 2 2 2 2 2 2 2 2 2
left_child=4 3 10 6 14 7 17 11 18 -4 20 12 -6 25 -1 -16 -12 -2 -5 -11 -3 22 -8 -19 26 -9 -20 -17 -21 -18
right_child=1 2 9 8 5 -7 21 13 -10 19 16 -13 -14 -15 15 27 29 23 24 28 -22 -23 -24 -25 -26 -27 -28 -29 -30 -31
leaf_value=-0.15464024158239001 -0.16685015965365579 0.066506284124692769 -0.10464556059071831 -0.14275216021601989 -0.17081924189123582 0.089761198875920767 -0.12913231368856362 0.063356946818280718 0.0052406651467859994 0.083200739322141642 -0.025592059095145853 -0.13805110210352226 0.049624205354643652 -0.094004934504073712 -0.17050912891286973 -0.069680048260274283 0.064327199408490229 -0.055976273684369332 -0.13390787829474635 -0.13479308470459989 0.13677860939594494 0.14154407189142346 0.076802081102963493 0.10671633160298151 -0.10926502754437797 -0.053367912577235221 0.016442215695209851 0.048114593942204811 0.029986085664723456 0.11996285685281596
leaf_weight=648.26921737194061 15.094922646880148 36.801060482859612 51.929682120680809 170.76911050081253 8.4943876564502734 37.676287397742271 5.4995302259922019 33.561442270874977 35.327570796012878 19.903178989887238 15.609983727335928 132.52493223547935 16.682952076196671 25.421260356903076 19.806265190243721 18.798229828476906 51.065049931406975 33.518044963479042 6.424615070223811 8.9031684249639493 1009.5095552653074 39.724351942539215 50.991407424211502 7.1675082296133033 65.943631082773209 13.155844032764433 20.22930708527565 11.508251368999483 6.0925154089927664 83.437586724758148
leaf_count=2650 62 158 208 694 35 164 22 139 143 86 63 539 69 102 81 76 222 136 26 36 4597 178 221 31 266 53 82 47 26 370
internal_value=0 0.703019 1.1582 -0.593016 -1.25152 -0.616856 0.342043 -0.865112 -1.06884 -0.552312 1.28234 -1.19962 -0.247495 -0.133836 -1.49462 -0.824799 0.859008 -0.65075 -1.21924 0.182976 1.34307 0.917612 0.567539 -0.27315 -0.835122 0.304866 -0.197979 -0.2495 -0.678458 0.988403
internal_weight=0 1733.94 1283.25 450.69 965.899 267.517 151.996 229.841 298.694 86.8285 1196.42 157.702 25.1773 72.1385 698.382 50.1127 150.113 55.7805 263.367 34.8989 1046.31 96.2153 56.4909 40.6856 92.5976 46.7173 26.6539 30.3065 14.9957 134.503
internal_count=11582 7627 5766 1861 3955 1101 650 937 1211 356 5410 643 104 294 2854 204 655 229 1068 148 4755 421 243 167 374 192 108 123 62 592
shrinkage=0.1


Tree=4
num_leaves=31
num_cat=0
split_feature=0 2 5 3 5 1 5 2 4 15 6 3 1 3 1 3 5 6 1 5 5 16 6 6 1 3 5 6 15 2
split_gain=1984.34 871.729 235.554 167.802 128.21 74.385 61.9528 45.9104 42.305 41.4683 41.3187 30.1346 27.9857 27.8272 25.384 28.9614 25.3397 23.9762 16.3919 14.937 14.7144 14.1473 12.316 11.7966 11.385 10.5421 10.5317 10.4761 10.0511 12.699
threshold=1.0000000180025095e-35 2.5000000000000004 4.0919365000000001 21.500000000000004 8.1890020000000039 1.0000000180025095e-35 5.7094150000000008 1.5000000000000002 1.0000000180025095e-35 1.0000000180025095e-35 4.5000000000000009 26.500000000000004 1.0000000180025095e-35 20.500000000000004 1.5000000000000002 26.500000000000004 1.9060675 3.5000000000000004 1.0000000180025095e-35 15.742365000000001 1.2245470000000001 1.0000000180025095e-35 11.500000000000002 6.5000000000000009 1.0000000180025095e-35 29.500000000000004 27.842065000000005 35.500000000000007 1.0000000180025095e-35 1.5000000000000002
decision_type=2 2 2 2 2 2 2 2 2 2 2 2 2 2 2 2 2 2 2 2 2 2 2 2 2 2 2 2 2 2
left_child=4 3 9 6 12 7 20 -6 13 27 -5 -4 28 -9 15 19 -14 -13 -11 -12 -2 -8 -10 -15 -23 -25 -21 -3 29 -1
right_child=1 2 11 10 5 -7 21 8 22 18 14 17 16 23 -16 -17 -18 -19 -20 26 -22 24 -24 25 -26 -27 -28 -29 -30 -31
leaf_value=-0.16136157476268467 -0.15823345890971197 0.082330233802459338 0.1278946806768595 -0.13234078578803385 -0.16045873189530185 0.090979166995612148 0.11197607923690774 0.085320293852425733 -0.12899924824487993 -0.096315869697798109 -0.068121065190729843 -0.083934970254673197 -0.12133433939320269 -0.084964720983218334 0.029183386208229509 -0.11130215679914371 0.01946050970916248 0.084863494930875125 0.046775796605288994 0.083953619100132965 -0.019710573688488484 -0.080990234169487696 -0.0099554944096717155 0.032492056592983071 0.12359162723190993 -0.11933467867853165 -0.037727373562343756 -0.027066003103914566 -0.14915309748800668 -0.10297594244811084
leaf_weight=54.101465031504631 10.969135671854017 28.937451094388962 1029.731103733182 140.94601473212242 45.930462405085564 32.207207664847374 70.839529931545258 26.29971931874752 51.383234485983849 59.953133523464203 34.22541806101799 9.4486701488494855 33.066542908549309 28.276244014501572 27.020421415567398 92.892660483717918 20.83871953189373 76.90245732665062 9.2395134568214399 15.930783867836 25.48294760286808 7.4715178757905942 10.459843605756758 24.950995400547985 4.2774959951639175 5.5997006595134726 12.850804165005682 12.550368398427961 490.10471875965595 119.61705857515335
leaf_count=228 46 125 4917 586 194 145 323 112 210 243 141 38 137 115 110 379 86 350 38 66 105 32 42 102 20 23 53 55 2064 497
internal_value=0 0.65921 1.09337 -0.54333 -1.15548 -0.497025 0.471932 -0.731912 -0.459186 -0.298112 -0.916501 1.23136 -1.362 -0.00189279 -0.602966 -0.758052 -0.669058 0.663933 -0.772084 -0.234712 -0.613948 0.951206 -1.08865 -0.38418 -0.0650755 0.0466342 0.296238 0.492371 -1.41827 -1.21159
internal_weight=0 1669.67 1226.76 442.907 942.836 225.107 119.041 192.9 146.97 110.68 323.866 1116.08 717.729 85.1267 182.92 155.9 53.9053 86.3511 69.1926 63.007 36.4521 82.5885 61.8431 58.8269 11.749 30.5507 28.7816 41.4878 663.823 173.719
internal_count=11582 7627 5766 1861 3955 943 526 798 604 461 1335 5305 3012 352 749 639 223 388 281 260 151 375 252 240 52 125 119 180 2789 725
shrinkage=0.1


Tree=5
num_leaves=31
num_cat=0
split_feature=0 2 15 3 5 2 5 1 1 2 3 3 1 6 5 4 6 3 2 6 3 5 3 1 5 14 5 2 4 14
split_gain=1672.53 746.067 206.813 138.647 111.253 92.1064 52.8177 37.9239 31.9326 31.8578 32.0273 29.8327 24.5231 22.9191 21.6816 21.3042 20.9108 21.3295 16.9657 16.3271 14.9192 13.7975 11.8942 11.6386 15.1957 11.5357 10.0524 9.41863 9.16069 8.68183
threshold=1.0000000180025095e-35 2.5000000000000004 1.0000000180025095e-35 21.500000000000004 4.3542865000000015 2.5000000000000004 1.9060675 1.0000000180025095e-35 1.0000000180025095e-35 1.5000000000000002 20.500000000000004 23.500000000000004 1.0000000180025095e-35 3.5000000000000004 1.9220230000000003 1.0000000180025095e-35 6.5000000000000009 24.500000000000004 1.5000000000000002 12.500000000000002 22.500000000000004 5.9839090000000015 22.500000000000004 1.0000000180025095e-35 1.1390105000000001 1.0000000180025095e-35 14.947425000000001 5.5000000000000009 1.0000000180025095e-35 1.0000000180025095e-35
decision_type=2 2 2 2 2 2 2 2 2 2 2 2 2 2 2 2 2 2 2 2 2 2 2 2 2 2 2 2 2 2
left_child=4 3 11 6 23 9 -2 16 15 -6 28 21 18 -13 27 22 -5 29 -8 -12 -16 -3 -7 -1 -25 -20 -15 -4 -11 -18
right_child=1 2 14 7 5 8 12 -9 -10 10 19 13 -14 26 20 -17 17 -19 25 -21 -22 -23 -24 24 -26 -27 -28 -29 -30 -31
leaf_value=-0.13791788723660603 -0.11691918906619055 0.081292439936798633 -0.063233519399547911 -0.12906008078846762 -0.14961712361000826 0.059510064144045707 -0.1201704545081631 -0.020424580821019615 0.11631530849997239 0.067792347681694995 -0.1088536522243278 -0.026375129685564942 0.13280981601934735 0.055217348897879673 0.074067271502572016 -0.080733509490831301 -0.094922070309304316 -0.10045263083901196 -0.042305750834698931 -0.0050826333229875035 -0.059780981808080925 0.12661666957700077 -0.034663204543176576 -0.15113972557545505 -0.030508447630980318 0.074140181668558083 0.10759204837835304 -0.16297996835327361 -0.061270784394153427 0.021727145652927101
leaf_weight=538.25225868821144 17.382226422429085 73.119565278291702 38.62437616288662 135.4841081649065 78.962035804986954 33.758412137627602 6.5840986669063559 72.47638513147831 23.540213420987129 18.430227249860767 98.820206642150879 18.604826182126999 39.748476460576057 54.20891472697258 19.030075833201408 31.466501101851463 8.378642797470091 75.30385610461235 10.709449008107184 17.909964248538017 14.807252764701841 824.69688382744789 22.251951321959496 18.622961044311523 23.772164300084114 41.374836623668671 113.11132961511612 12.540061563253401 7.8384839147329322 26.753021582961082
leaf_count=2350 74 348 157 582 348 144 27 295 107 80 419 76 194 250 86 130 34 313 45 75 62 4188 91 81 97 186 548 51 33 111
internal_value=0 0.620115 1.03594 -0.499188 -1.07519 -0.614382 0.437821 -0.839973 0.129289 -0.98634 -0.704818 1.15375 0.721649 0.789159 -0.466087 -0.148926 -1.02733 -0.70435 0.310773 -0.92932 0.154951 1.22925 0.220966 -1.33945 -0.834983 0.501968 0.906235 -0.876807 0.292804 -0.0609283
internal_weight=0 1602.94 1168.74 434.195 913.625 332.978 115.799 318.396 111.017 221.961 142.999 1083.74 98.4169 185.925 85.0018 87.4769 245.92 110.436 58.6684 116.73 33.8373 897.816 56.0104 580.647 42.3951 52.0843 167.32 51.1644 26.2687 35.1317
internal_count=11582 7627 5766 1861 3955 1427 526 1335 472 955 607 5410 452 874 356 365 1040 458 258 494 148 4536 235 2528 178 231 798 208 113 145
shrinkage=0.1


Tree=6
num_leaves=31
num_cat=0
split_feature=0 2 5 3 5 2 5 3 1 6 1 3 5 6 1 5 2 15 1 6 1 3 3 6 2 2 5 3 3 5
split_gain=1415.71 641.023 186.052 115.988 99.0829 61.151 54.5385 50.8361 36.3781 35.6441 32.6651 27.9446 22.2971 22.069 17.6608 17.9863 16.3883 14.708 14.4074 12.3808 12.3036 11.81 11.026 10.4591 8.62156 8.28198 7.95697 9.67836 14.1553 7.95456
threshold=1.0000000180025095e-35 2.5000000000000004 4.0919365000000001 22.500000000000004 6.4379215000000007 1.5000000000000002 8.4254830000000016 19.500000000000004 1.0000000180025095e-35 2.5000000000000004 1.0000000180025095e-35 25.500000000000004 14.234345000000003 2.5000000000000004 1.0000000180025095e-35 1.1390105000000001 1.5000000000000002 1.0000000180025095e-35 1.0000000180025095e-35 4.5000000000000009 1.0000000180025095e-35 19.500000000000004 26.500000000000004 35.500000000000007 5.5000000000000009 2.5000000000000004 5.8253064999999999 37.500000000000007 26.500000000000004 15.742365000000001
decision_type=2 2 2 2 2 2 2 2 2 2 2 2 2 2 2 2 2 2 2 2 2 2 2 2 2 2 2 2 2 2
left_child=4 3 10 6 14 -6 16 -7 19 -9 17 -4 18 -13 -1 -16 -2 23 -11 -5 -18 -8 29 -3 -19 -14 -10 28 -28 -21
right_child=1 2 11 8 5 7 21 9 26 12 -12 13 25 -15 15 -17 20 24 -20 22 -22 -23 -24 -25 -26 -27 27 -29 -30 -31
leaf_value=-0.12645631802503488 -0.14101919118184336 0.047148238614816346 0.11757139669050537 -0.12781330498738844 -0.14162478725573249 0.095331020391611121 0.11943761403531442 -0.12763408451438771 -0.094473983576085954 -0.073343607409174824 0.085853735132067704 -0.11614243154894809 -0.0078598319551301653 0.074543734065080011 -0.14298606319859039 -0.016031133241012612 -0.041956020819199108 -0.061854195982030541 0.042202615771308807 -0.077848297950643519 0.0996402576513164 0.044505715873776178 -0.10389973441292584 -0.084289806027981973 -0.15562599770087249 0.071477143106601901 0.10499842059561232 0.043704391077362501 -0.069102148742899563 0.012191172230898967
leaf_weight=582.38481825590134 14.232544139027594 19.412919640541077 899.22097671031952 105.28126288950443 54.105464175343513 31.27559594810009 38.655313402414322 38.745574608445168 11.862451538443564 61.808982148766518 20.960222810506821 6.4777563214302054 26.344214633107185 96.273299694061279 17.760719045996666 30.024346187710762 34.694996818900108 46.399250119924545 13.073915690183638 22.019252553582191 7.4552664607763282 46.140272110700607 68.791848704218864 8.7978107780218142 12.431908652186392 26.287012219429016 5.6244321018457404 24.118890151381493 27.520712852478027 17.69818314909935
leaf_count=2650 64 87 4813 472 250 141 197 165 48 261 92 26 111 466 81 123 143 191 60 92 35 211 295 39 52 113 23 98 111 72
internal_value=0 0.58528 0.984846 -0.460497 -1.00479 -0.47433 0.279825 -0.216336 -0.829924 -0.436362 -0.262169 1.11926 -0.181131 0.625223 -1.21661 -0.632177 -0.482395 -0.532042 -0.531702 -1.03382 -0.169114 0.786645 -0.796785 0.0615791 -0.816696 0.317655 -0.199312 -0.0448942 -0.395589 -0.377265
internal_weight=0 1534.07 1109.97 424.095 881.811 251.641 141.178 197.535 282.917 166.26 108.002 1001.97 127.514 102.751 630.17 47.7851 56.3828 87.0419 74.8829 213.791 42.1503 84.7956 108.509 28.2107 58.8312 52.6312 69.1265 57.264 33.1451 39.7174
internal_count=11582 7627 5766 1861 3955 1101 650 851 1211 710 461 5305 545 492 2854 204 242 369 321 931 178 408 459 126 243 224 280 232 134 164
shrinkage=0.1


Tree=7
num_leaves=31
num_cat=0
split_feature=0 2 5 3 15 1 2 5 6 4 3 1 6 5 3 5 3 2 2 1 5 7 1 5 4 4 10 6 14 3
split_gain=1202.37 552.16 164.558 99.059 92.5165 76.1171 46.6251 39.5992 36.6558 32.6136 27.746 26.8926 23.4165 20.2823 23.7283 17.8348 17.0835 13.6363 13.2335 13.0075 11.9039 10.48 9.43464 9.18986 8.51997 8.34213 7.30462 6.97668 7.08869 6.78411
threshold=1.0000000180025095e-35 2.5000000000000004 4.0919365000000001 20.500000000000004 1.0000000180025095e-35 1.0000000180025095e-35 1.5000000000000002 2.0468350000000002 7.5000000000000009 1.0000000180025095e-35 23.500000000000004 1.0000000180025095e-35 3.5000000000000004 4.7067660000000009 24.500000000000004 12.208360000000001 26.500000000000004 1.5000000000000002 6.5000000000000009 1.5000000000000002 1.1390105000000001 1.0000000180025095e-35 1.5000000000000002 41.249435000000005 1.0000000180025095e-35 1.0000000180025095e-35 1.0000000180025095e-35 37.500000000000007 1.0000000180025095e-35 19.500000000000004
decision_type=2 2 2 2 2 2 2 2 2 2 2 2 2 2 2 2 2 2 2 2 2 2 2 2 2 2 2 2 2 2
left_child=4 3 11 7 5 6 -1 -2 22 13 -4 18 -12 -8 29 -10 27 -9 20 -18 -3 -22 25 -21 -7 -5 -16 28 -17 -15
right_child=1 2 10 8 -6 24 9 17 15 -11 12 -13 -14 14 26 16 19 -19 -20 23 21 -23 -24 -25 -26 -27 -28 -29 -30 -31
leaf_value=-0.13810654456973065 -0.09504827730501858 -0.10211937023584038 0.11515841291288963 -0.050635214415705454 -0.12342713315981942 0.09247585121084112 -0.088866361621550302 -0.036012791603208243 -0.088458598706170954 -0.093939359384263926 -0.035967381315207582 0.079000932697749868 0.083498434717425102 0.085410774726287941 0.049065659868414269 -0.031747376925944031 -0.068075743279941189 0.1040722271997605 -0.1703916213615429 0.080702291780759661 0.0074476331725928831 -0.10182808325237316 -0.019916744401119069 -0.082150199164566839 -0.0070909470545396508 -0.11630443321841621 -0.08164546936269404 -0.070704311124943561 0.06775041552336851 0.015905593446226007
leaf_weight=83.28447237610817 14.360624417662619 20.098800301551819 774.2045497149229 22.659049600362778 476.51160150766373 32.590655595064163 32.764614522457123 7.8628802746534339 42.868987336754799 103.80326372385025 18.380377814173698 20.523758962750435 152.83571867644787 19.335766360163689 4.9380690753459922 9.1039746701717359 54.541907504200935 59.777986258268356 8.0567956864833814 11.78267425298691 47.295662403106689 10.77603144943714 13.630228832364081 4.9087299257516852 11.672292590141295 132.23426868021488 31.857079222798347 5.7644001990556708 33.541004002094269 51.301866233348846
leaf_count=406 64 84 4437 101 2271 152 151 34 184 460 76 92 792 87 21 38 234 307 35 48 204 46 55 20 52 606 136 24 146 219
internal_value=0 0.553511 0.938133 -0.426277 -0.942618 -0.568571 -0.735024 0.557686 -0.670016 -0.514511 1.07102 -0.238775 0.706735 -0.199925 0.0101247 -0.331155 -0.132856 0.877881 -0.483646 -0.444363 -0.357877 -0.1283 -0.996789 0.328094 0.662197 -1.06698 -0.641035 0.32552 0.465093 0.349314
internal_weight=0 1465.21 1052.17 413.037 848.06 371.548 327.285 82.0015 331.035 244.001 945.421 106.751 171.216 140.197 107.433 162.512 119.643 67.6409 86.2273 71.2333 78.1705 58.0717 168.524 16.6914 44.2629 154.893 36.7951 48.4094 42.645 70.6376
internal_count=11582 7627 5766 1861 3955 1684 1480 405 1456 1074 5305 461 868 614 463 694 510 341 369 302 334 250 762 68 204 707 157 208 184 306
shrinkage=0.1


Tree=8
num_leaves=31
num_cat=0
split_feature=0 2 5 3 15 2 5 1 3 1 2 1 6 6 2 1 2 6 5 2 6 3 5 2 5 5 7 3 3 11
split_gain=1023.87 476.581 146.156 83.3442 83.0495 65.7144 40.0833 29.8727 27.1815 25.0584 24.9928 22.1664 20.079 18.2513 13.3642 12.514 13.3556 12.3082 13.7916 11.5027 10.6842 10.5346 10.812 10.4587 9.96866 9.53845 8.51908 7.68851 6.95782 8.00643
threshold=1.0000000180025095e-35 2.5000000000000004 4.0919365000000001 22.500000000000004 1.0000000180025095e-35 2.5000000000000004 7.0139115000000016 1.0000000180025095e-35 23.500000000000004 1.0000000180025095e-35 1.5000000000000002 1.0000000180025095e-35 3.5000000000000004 11.500000000000002 1.5000000000000002 1.0000000180025095e-35 1.5000000000000002 2.5000000000000004 14.947425000000001 6.5000000000000009 4.5000000000000009 23.500000000000004 5.8253064999999999 1.5000000000000002 1.1390105000000001 1.0874690000000002 1.0000000180025095e-35 19.500000000000004 26.500000000000004 1.0000000180025095e-35
decision_type=2 2 2 2 2 2 2 2 2 2 2 2 2 2 2 2 2 2 2 2 2 2 2 2 2 2 2 2 2 2
left_child=4 3 11 6 5 10 14 20 -4 17 -1 19 -10 21 -2 16 -8 -7 -19 24 -5 22 -12 -22 -3 -16 -26 -27 -25 -30
right_child=1 2 8 7 -6 9 15 -9 12 -11 13 -13 -14 -15 25 -17 -18 18 -20 -21 23 -23 -24 28 26 27 -28 -29 29 -31
leaf_value=-0.12754847627970664 -0.13364349622962077 -0.093910861092505654 0.11104932420914859 -0.11503654244081166 -0.11722260909186849 -0.06669478548848938 -0.11046940248710109 -0.014433152698061672 -0.032268615773350683 0.10283078090008808 -0.09152504732461636 0.072775350035882203 0.078456863211640443 0.011118116734337512 -0.14537076546441441 0.11824773565824212 0.055473912876286349 -0.023498871495305686 0.071529175882102211 -0.1604314389914685 -0.13476272179395729 -0.10274025398568057 -0.0053922180931944346 -0.018987667426010966 0.0067082930944287458 0.061922112918963906 -0.091949429165152308 -0.035030234177815166 -0.091143523281002906 0.038749080658166221
leaf_weight=82.996099472045898 12.593605637550352 19.691384643316269 725.1110073029995 96.242983087897301 452.7941108494997 30.892765149474144 5.4250148534774771 68.290065288543701 18.435330376029015 22.373458057641983 26.991094321012497 20.075468420982361 146.71551986038685 29.545963898301125 4.9184477031230918 31.182087242603302 45.759269490838051 43.925456285476685 23.413006588816643 7.7185349464416495 19.53133225440979 68.575811356306076 31.677732363343239 34.459346860647202 47.259411349892616 13.593833073973654 10.741859674453734 20.536226451396942 44.760253921151161 5.3081248998641959
leaf_count=426 62 84 4437 472 2271 140 22 280 76 111 128 92 792 130 23 178 221 192 101 35 87 316 140 145 204 60 46 84 203 24
internal_value=0 0.524011 0.895224 -0.394106 -0.887117 -0.528908 0.250035 -0.715487 1.0271 0.0731985 -0.831748 -0.217772 0.660969 -0.596858 -0.440664 0.683089 0.378856 -0.14434 0.0954157 -0.440014 -0.910214 -0.761264 -0.450184 -0.688102 -0.324344 -0.151767 -0.115632 0.035854 -0.535709 -0.773726
internal_weight=0 1398.35 995.749 402.601 813.185 360.391 134.008 268.592 890.262 120.605 239.787 105.487 165.151 156.791 51.6421 82.3664 51.1843 98.2312 67.3385 85.4112 200.302 127.245 58.6688 104.059 77.6927 39.0485 58.0013 34.1301 84.5277 50.0684
internal_count=11582 7627 5766 1861 3955 1684 650 1211 5305 544 1140 461 868 714 229 421 243 433 293 369 931 584 268 459 334 167 250 144 372 227
shrinkage=0.1


Tree=9
num_leaves=31
num_cat=0
split_feature=0 2 15 15 3 1 2 5 5 3 4 6 5 3 5 3 5 2 5 2 3 1 1 4 1 5 5 4 1 3
split_gain=872.628 412.067 131.899 75.5932 71.4379 57.7761 39.69 29.7928 29.0159 28.0248 26.8216 16.2966 15.9971 18.2622 15.0448 13.1724 12.7004 10.9422 10.3879 10.3246 9.95755 9.87438 9.81857 7.96567 7.73314 9.33297 7.37584 6.86548 6.536 6.34306
threshold=1.0000000180025095e-35 2.5000000000000004 1.0000000180025095e-35 1.0000000180025095e-35 20.500000000000004 1.0000000180025095e-35 1.5000000000000002 2.0468350000000002 12.208360000000001 23.500000000000004 1.0000000180025095e-35 2.5000000000000004 4.3542865000000015 24.500000000000004 16.602270000000004 22.500000000000004 5.9839090000000015 5.5000000000000009 1.0874690000000002 1.5000000000000002 26.500000000000004 1.5000000000000002 1.0000000180025095e-35 1.0000000180025095e-35 1.0000000180025095e-35 1.1390105000000001 41.249435000000005 1.0000000180025095e-35 1.0000000180025095e-35 25.500000000000004
decision_type=2 2 2 2 2 2 2 2 2 2 2 2 2 2 2 2 2 2 2 2 2 2 2 2 2 2 2 2 2 2
left_child=3 4 9 5 7 6 -1 -2 22 16 12 -10 -8 -14 -11 -13 -3 18 -4 -9 28 23 29 -17 -5 -26 -23 -7 -20 -6
right_child=1 2 17 24 8 27 10 19 11 14 -12 15 13 -15 -16 21 -18 -19 20 -21 -22 26 -24 -25 25 -27 -28 -29 -30 -31
leaf_value=-0.12833401036779415 -0.084014610430527478 0.062832241590873555 -0.095939588846131907 -0.11567229584728177 -0.073670267757261793 0.084891089475209403 -0.081136043239585898 -0.029236803180324379 -0.12912540899681219 0.025561070217809158 -0.083819309603997305 0.05492793026240389 0.031960800876764277 -0.055467946007939778 0.08696841522545222 0.039874218747946472 0.10974153684006141 -0.1213267246046562 0.00027758598263661211 0.094808032827790226 -0.098093588880098753 0.068498451342360836 -0.03278103454500278 -0.053536559962741127 -0.12647982275842479 -0.021908473158067543 -0.071904868803952471 -0.0053268029360727387 0.099098655163495086 -0.11648073120833594
leaf_weight=73.394717842340469 13.540262714028357 63.459325671195984 14.587931036949156 394.10361026227474 63.775812327861786 30.878418892621994 29.035084515810013 7.6463834941387168 13.659484490752218 72.73398844897747 98.492100700736046 22.711308017373085 71.033547848463058 35.999882489442825 88.374235823750496 10.306278795003889 637.77264542877674 13.173104166984556 34.291257336735725 54.787669345736504 8.6538168638944608 15.364723056554796 28.814503997564316 79.9265506118536 14.892419725656508 19.992455914616585 4.9460494071245185 11.60516721010208 8.3159718215465528 75.679343819618225
leaf_count=406 64 348 63 2107 300 152 143 34 65 365 460 107 312 159 509 44 4188 62 152 307 37 63 120 354 80 84 20 52 42 383
internal_value=0 0.496779 0.855242 -0.835304 -0.3659 -0.49074 -0.641552 0.504536 -0.575716 0.968555 -0.440734 -0.250998 -0.153036 0.025548 0.592454 -0.144365 1.05496 -0.381295 -0.214859 0.796161 -0.00297761 -0.286875 -0.859224 -0.428673 -1.11678 -0.665502 0.343076 0.602464 0.195652 -0.969026
internal_weight=0 1332.52 941.362 779.427 391.158 350.439 307.955 75.9743 315.184 862.34 234.561 146.914 136.069 107.033 161.108 133.255 701.232 79.0221 65.849 62.4341 51.261 110.544 168.27 90.2328 428.988 34.8849 20.3108 42.4836 42.6072 139.455
internal_count=11582 7627 5766 3955 1861 1684 1480 405 1456 5410 1074 653 614 471 874 588 4536 356 294 341 231 481 803 398 2271 164 83 204 194 683
shrinkage=0.1


Tree=10
num_leaves=31
num_cat=0
split_feature=5 2 0 3 2 0 15 1 2 3 2 3 1 6 4 5 6 6 5 3 3 1 5 2 5 3 1 5 6 3
split_gain=750.05 384.126 86.3138 72.9449 49.257 46.9977 34.5873 33.6843 23.2449 22.509 20.5174 16.539 15.2784 15.2699 14.5271 13.6103 13.568 12.4778 19.3869 9.98231 11.4977 9.32548 9.0762 8.83332 8.764 9.85921 8.10653 7.77162 7.68621 7.92562
threshold=6.4379215000000007 2.5000000000000004 1.0000000180025095e-35 20.500000000000004 2.5000000000000004 1.0000000180025095e-35 1.0000000180025095e-35 1.0000000180025095e-35 1.5000000000000002 23.500000000000004 1.5000000000000002 26.500000000000004 1.0000000180025095e-35 4.5000000000000009 1.0000000180025095e-35 1.1390105000000001 2.5000000000000004 2.5000000000000004 10.493835000000002 26.500000000000004 37.500000000000007 1.0000000180025095e-35 1.2701695000000004 1.5000000000000002 3.4273750000000009 19.500000000000004 1.0000000180025095e-35 14.947425000000001 35.500000000000007 28.500000000000004
decision_type=2 2 2 2 2 2 2 2 2 2 2 2 2 2 2 2 2 2 2 2 2 2 2 2 2 2 2 2 2 2
left_child=2 3 12 8 14 13 21 10 -2 -7 -5 17 23 -3 22 -14 -11 -12 -19 -9 -21 28 -4 -1 -25 -26 -8 -18 29 -6
right_child=1 5 4 7 6 9 26 19 -10 16 11 -13 15 -15 -16 -17 27 18 -20 20 -22 -23 -24 24 25 -27 -28 -29 -30 -31
leaf_value=-0.12493925274397795 -0.061001556672156676 -0.045739743425787675 -0.13772025718928832 -0.12342268141198208 0.06391175758573181 0.10600248730666634 -0.058442372908817902 0.086053028983634705 0.086608078394399463 -0.084821716454525575 -0.10368322429204282 -0.085922595941112567 -0.12229571033126097 0.046734685097544901 -0.092342124292042638 -0.0027055704290703912 0.034794124983481174 -0.10644222893920337 0.011858517492009463 -0.049950902274449774 0.039523607591955633 0.10194222148816799 0.013632998412299015 -0.10360517201738258 0.033997155767498045 -0.078127272992973784 0.03833746018682116 0.085179387804683204 -0.034201040739037937 -0.066697131347935132
leaf_weight=139.82162369787693 13.035470694303511 25.711996421217918 4.7588620036840465 54.504152312874794 41.129856199026108 590.90654250979424 59.765380844473839 13.523967504501341 58.749515935778618 6.0421903729438773 17.694826111197472 87.929387107491493 14.131402805447577 58.445332333445549 104.47572135925293 29.140436932444572 46.049275681376457 17.275550618767738 69.914703518152237 31.659089714288712 26.286830455064774 24.871055647730827 23.663070559501648 260.83163385093212 8.9250240027904493 64.642652347683907 10.120583832263945 91.323208332061768 14.526800021529196 5.2377571165561667
leaf_count=810 67 117 25 301 232 4158 266 63 338 25 86 430 81 272 527 123 239 78 307 132 109 149 110 1462 43 335 46 552 76 23
internal_value=0 0.503281 -0.74207 -0.312675 -0.303838 0.89265 0.0779359 -0.51775 0.598036 0.973772 -0.692491 -0.539355 -0.986423 0.184816 -0.750977 -0.417604 0.618388 -0.271194 -0.115811 0.0869357 -0.0936131 0.503456 -0.11709 -1.03833 -0.950075 -0.645247 -0.444271 0.682895 0.292721 0.49158
internal_weight=0 1209.05 806.042 390.573 288.549 818.479 155.651 318.789 71.785 734.321 247.319 192.814 517.493 84.1573 132.898 43.2718 143.415 104.885 87.1903 71.4699 57.9459 85.7655 28.4219 474.221 334.399 73.5677 69.886 137.372 60.8944 46.3676
internal_count=11582 7274 4308 1911 1454 5363 792 1506 405 4974 1202 901 2854 389 662 204 816 471 385 304 241 480 135 2650 1840 378 312 791 331 255
shrinkage=0.1


Tree=11
num_leaves=31
num_cat=0
split_feature=0 2 5 15 3 2 3 6 5 2 1 1 6 6 5 9 6 1 8 4 2 6 5 4 1 5 3 2 5 3
split_gain=641.478 305.732 106.99 64.128 52.8835 47.5084 26.1863 24.1012 22.1636 20.1705 17.0818 14.0963 13.6426 13.0988 11.325 13.5257 11.181 10.4463 10.1154 7.87761 7.59549 7.59432 9.95246 7.49351 7.01724 7.64473 6.79932 6.70023 7.67367 6.31899
threshold=1.0000000180025095e-35 2.5000000000000004 4.0919365000000001 1.0000000180025095e-35 20.500000000000004 2.5000000000000004 26.500000000000004 7.5000000000000009 2.0468350000000002 1.5000000000000002 1.0000000180025095e-35 1.0000000180025095e-35 7.5000000000000009 7.5000000000000009 12.208360000000001 1.0000000180025095e-35 3.5000000000000004 1.0000000180025095e-35 1.0000000180025095e-35 1.0000000180025095e-35 1.5000000000000002 2.5000000000000004 14.947425000000001 1.0000000180025095e-35 1.0000000180025095e-35 1.1390105000000001 22.500000000000004 6.5000000000000009 1.2245470000000001 23.500000000000004
decision_type=2 2 2 2 2 2 2 2 2 2 2 2 2 2 2 2 2 2 2 2 2 2 2 2 2 2 2 2 2 2
left_child=3 4 11 5 8 9 16 23 -2 -1 21 18 19 -8 -9 -16 26 -14 27 -11 -10 -7 -23 -6 -5 -26 -4 28 -3 -30
right_child=1 2 6 24 7 10 13 14 20 12 -12 -13 17 -15 15 -17 -18 -19 -20 -21 -22 22 -24 -25 25 -27 -28 -29 29 -31
leaf_value=-0.11500964624998017 -0.07220445072731585 -0.099624047124744139 0.072997682781555231 -0.10686048946102966 -0.023828459598838853 -0.051419992404605055 -0.041190850111264665 -0.067304750755202716 -0.01979134433148904 -0.042436843055052284 0.092319523289998942 0.059731954899163608 -0.024251708899507035 0.058302137931299881 0.015520511774981647 -0.062618161172659351 0.10080984408310623 0.11285058980045125 0.048211236921694489 -0.099574748514435665 0.087353209462392029 -0.018193869859191521 0.063672722720993377 -0.087638666265013626 -0.11821625440613702 -0.019625664881848276 -0.013885256750091749 -0.14863264662901854 0.0018096127451211663 -0.080836556356121969
leaf_weight=68.532141640782356 12.793857529759405 16.630397096276283 33.484369948506355 349.46697315573692 21.579512700438499 28.669324278831482 17.795487955212593 39.928901106119156 7.61989901959896 48.011714398860931 20.457695409655571 18.686472162604332 43.191478118300438 51.607699871063232 82.904512479901314 30.230662479996681 625.14009472727776 6.3780647665262213 12.021969854831694 48.50834359228611 50.235028311610222 42.664511367678642 22.777562379837036 125.05216379463673 12.998034954071043 19.915142178535461 12.321957021951674 6.3978743702173224 34.183666959404945 12.684017136692999
leaf_count=426 64 76 237 2107 104 140 83 184 34 234 111 92 199 305 373 137 4619 31 53 250 307 192 101 658 80 84 61 33 153 54
internal_value=0 0.447786 0.781183 -0.748489 -0.309271 -0.424941 0.912667 -0.492743 0.469026 -0.702502 0.0950121 -0.186415 -0.492531 0.327914 -0.215183 -0.0535879 0.973155 -0.0661089 -0.365195 -0.711528 0.732415 -0.0850162 0.103004 -0.782478 -1.02703 -0.585609 0.496261 -0.51093 -0.412652 -0.205573
internal_weight=0 1211.3 840.954 711.571 370.345 329.191 740.35 299.696 70.6488 214.622 114.569 100.604 146.09 69.4032 153.064 113.135 670.946 49.5695 81.9179 96.5201 57.8549 94.1114 65.4421 146.632 382.38 32.9132 45.8063 69.896 63.4981 46.8677
internal_count=11582 7627 5766 3955 1861 1684 5305 1456 405 1140 544 461 714 388 694 510 4917 230 369 484 341 433 293 762 2271 164 298 316 283 207
shrinkage=0.1


Tree=12
num_leaves=31
num_cat=0
split_feature=5 2 3 0 0 2 6 3 3 5 4 6 5 3 1 3 1 1 5 5 6 1 0 2 1 6 3 9 3 7
split_gain=553.696 351.114 61.7798 45.5216 33.9735 33.2769 27.743 25.4321 25.378 21.3679 15.3754 12.1404 11.7632 12.725 11.0518 10.9325 9.31669 9.25362 9.08061 8.99939 8.46305 8.43865 10.5085 7.8334 7.67648 7.6404 7.02709 7.75221 7.01899 6.13293
threshold=4.3542865000000015 2.5000000000000004 19.500000000000004 1.0000000180025095e-35 1.0000000180025095e-35 1.5000000000000002 6.5000000000000009 24.500000000000004 22.500000000000004 1.9060675 1.0000000180025095e-35 28.500000000000004 12.274555000000001 26.500000000000004 1.0000000180025095e-35 22.500000000000004 1.0000000180025095e-35 1.5000000000000002 1.1390105000000001 38.28081000000001 3.5000000000000004 1.0000000180025095e-35 1.5000000000000002 1.5000000000000002 1.0000000180025095e-35 37.500000000000007 22.500000000000004 1.0000000180025095e-35 22.500000000000004 1.0000000180025095e-35
decision_type=2 2 2 2 2 2 2 2 2 2 2 2 2 2 2 2 2 2 2 2 2 2 2 2 2 2 2 2 2 2
left_child=4 2 23 10 16 14 26 20 9 -6 15 -9 24 25 -4 -3 -1 -15 -18 -19 28 22 29 -2 -8 -14 -7 -28 -5 -11
right_child=1 3 5 7 8 6 12 11 -10 21 -12 -13 13 17 -16 -17 18 19 -20 -21 -22 -23 -24 -25 -26 -27 27 -29 -30 -31
leaf_value=-0.099434819423771359 -0.015183201812600229 0.072197880025971689 -0.11692267127934936 0.070280521328963549 -0.054088294268972263 -0.019363845267094247 -0.068065563278733573 0.016382672764601446 -0.083780375819209718 -0.00061434563333979161 -0.041352032756118179 0.084076281298099687 0.051292369279652639 -0.042977422713751684 0.010771985258517029 -0.012699789789735389 -0.11497622132753899 0.096307367432407948 -0.008368343344906411 -0.061527301866770856 0.09951056508777073 0.10159833479029388 0.086021303503446181 0.087141459214948869 0.034665553167272135 -0.061577589517750046 -0.089193418930592502 -0.018856419149163722 -0.043779794196547053 -0.12017705520607816
leaf_weight=369.67743684351444 9.030105844140051 43.797782123088837 69.850112453103065 30.686865195631981 56.323570445179939 26.388845905661583 38.340200424194336 65.236414283514023 88.406156003475189 19.821113213896755 32.124917030334473 44.610339567065239 60.548711597919464 49.971608743071556 7.5061263293027869 23.204051062464714 12.272640451788901 10.866407483816149 22.895144939422607 5.4115567654371253 543.01302366703749 13.900422275066374 12.355209752917288 43.626046240329742 8.9767802059650403 6.6566917896270743 89.621287018060684 18.989821746945381 6.5460629612207404 5.475290670990943
leaf_count=2350 48 217 437 229 270 123 182 361 464 92 151 286 286 232 31 104 81 46 97 22 4357 79 60 273 40 29 476 97 37 25
internal_value=0 0.3882 -0.321257 0.788932 -0.782026 -0.457502 -0.313501 0.879955 -0.440604 -0.115091 0.155255 0.43874 -0.0573525 0.0945405 -1.04532 0.427961 -0.947559 -0.216468 -0.455717 0.438357 0.963482 0.35011 0.10428 0.695936 -0.485758 0.401126 -0.656496 -0.768955 0.502271 -0.264931
internal_weight=0 1235 445.784 789.219 601.127 393.128 315.772 690.093 196.282 107.876 99.1268 109.847 180.772 133.455 77.3562 67.0018 404.845 66.2496 35.1678 16.278 580.246 51.552 37.6516 52.6562 47.317 67.2054 135 108.611 37.2329 25.2964
internal_count=11582 8064 2322 5742 3518 2001 1533 5270 990 526 472 647 837 615 468 321 2528 300 178 68 4623 256 177 321 222 315 696 573 266 117
shrinkage=0.1


Tree=13
num_leaves=31
num_cat=0
split_feature=5 2 0 3 6 3 5 1 3 2 3 1 6 1 6 5 0 0 5 2 7 5 3 4 5 3 3 3 6 2
split_gain=474.288 251.149 61.1894 47.766 38.424 30.7693 26.9348 25.4348 25.2345 21.9065 17.3579 12.95 12.6659 12.6489 11.9258 14.5702 11.5898 10.1605 10.0246 9.77593 9.23228 8.40891 9.54386 8.46395 8.1138 7.54754 9.56564 7.27347 8.65169 6.50042
threshold=6.4379215000000007 2.5000000000000004 1.0000000180025095e-35 19.500000000000004 11.500000000000002 22.500000000000004 1.9220230000000003 1.0000000180025095e-35 22.500000000000004 1.5000000000000002 26.500000000000004 1.0000000180025095e-35 44.500000000000007 1.0000000180025095e-35 2.5000000000000004 10.493835000000002 1.0000000180025095e-35 1.5000000000000002 1.1390105000000001 1.5000000000000002 1.0000000180025095e-35 1.9573670000000003 25.500000000000004 1.0000000180025095e-35 4.7834030000000007 26.500000000000004 37.500000000000007 27.500000000000004 2.5000000000000004 1.5000000000000002
decision_type=2 2 2 2 2 2 2 2 2 2 2 2 2 2 2 2 2 2 2 2 2 2 2 2 2 2 2 2 2 2
left_child=2 3 13 29 8 6 -4 9 16 -5 14 20 -6 19 -11 -16 -3 27 -15 -1 -8 -21 23 -23 -7 -9 -27 28 -10 -2
right_child=1 4 5 7 12 24 11 25 17 10 -12 -13 -14 18 15 -17 -18 -19 -20 21 -22 22 -24 -25 -26 26 -28 -29 -30 -31
leaf_value=-0.11602495500314398 -0.0057095267214528561 0.014837959784261077 -0.048551141790192043 -0.11264001578440362 0.095697815806555439 -0.077655889728671934 0.032744326022980795 0.072382869860571256 -0.10089711915678415 -0.091846916504922771 -0.073789712527123144 0.099592531781158955 -0.11211303609407069 -0.11184929023671847 -0.079654844805506483 0.018442859527066046 0.085147347606688517 0.047020363004036225 -0.0010837773484130351 -0.094905937324220729 -0.067455277085864809 -0.0071072797269233629 -0.10237148806072918 -0.074940594103366509 -0.015966473635697712 -0.041009393921685365 0.041119803568139837 -0.084760758478890461 0.022565654728268957 0.094789241953237471
leaf_weight=113.98486776649952 7.9337116926908484 30.205361157655716 56.695317253470421 49.373315930366516 472.0128196105361 90.138574369251728 53.678866162896156 16.932080700993538 7.1569723933935157 16.535130724310875 80.324158787727356 25.598137862980366 2.9512632414698592 11.399220138788221 18.667465522885323 80.143240943551064 104.74976313859224 27.311279766261578 28.84907503426075 175.75434699654579 11.096420228481291 38.981734424829483 35.240030601620674 34.829649895429611 27.926282487809658 31.15590862929821 26.029265433549881 15.866901770234106 27.42587573081255 34.094579853117466
leaf_count=810 42 148 275 325 3871 491 301 89 34 89 430 176 23 81 89 370 896 164 123 1186 58 217 223 214 153 132 109 77 150 236
internal_value=0 0.431243 -0.629761 -0.243954 0.785876 -0.25043 0.0547994 -0.375919 0.432662 -0.531175 -0.380982 0.393761 0.944066 -0.858836 -0.132435 -0.000899046 0.694109 -0.0210825 -0.324551 -0.91276 0.155795 -0.813709 -0.595571 -0.39116 -0.630643 0.13738 -0.0362623 -0.287043 -0.0298515 0.75818
internal_weight=0 1048.87 704.173 361.189 687.68 265.134 147.069 319.161 212.716 245.043 195.67 90.3734 474.964 439.039 115.346 98.8107 134.955 77.761 40.2483 398.791 64.7753 284.806 109.051 73.8114 118.065 74.1173 57.1852 50.4497 34.5828 42.0283
internal_count=11582 7274 4308 1911 5363 1454 810 1633 1469 1303 978 535 3894 2854 548 459 1044 425 204 2650 359 1840 654 431 644 330 241 261 184 278
shrinkage=0.1


Tree=14
num_leaves=31
num_cat=0
split_feature=6 2 5 1 1 2 2 5 15 3 5 5 3 3 6 3 2 5 5 3 1 0 3 5 3 3 2 3 5 3
split_gain=408.711 184.291 81.1317 47.1403 36.8677 32.1881 27.9685 23.7843 23.2383 21.1727 19.7784 16.648 16.106 13.8531 11.1398 11.0938 11.136 10.9077 10.543 9.25252 8.68357 10.1808 7.58311 9.80525 7.42995 7.38274 7.3312 7.27294 6.92055 6.69099
threshold=4.5000000000000009 2.5000000000000004 1.9573670000000003 1.0000000180025095e-35 1.0000000180025095e-35 1.5000000000000002 1.5000000000000002 14.947425000000001 1.0000000180025095e-35 22.500000000000004 12.274555000000001 1.1390105000000001 22.500000000000004 25.500000000000004 44.500000000000007 24.500000000000004 1.5000000000000002 12.086865000000001 7.7891804999999996 26.500000000000004 1.0000000180025095e-35 1.5000000000000002 19.500000000000004 2.9973430000000003 30.500000000000004 19.500000000000004 3.5000000000000004 19.500000000000004 5.9839090000000015 25.500000000000004
decision_type=2 2 2 2 2 2 2 2 2 2 2 2 2 2 2 2 2 2 2 2 2 2 2 2 2 2 2 2 2 2
left_child=3 4 26 6 5 -2 -1 9 12 20 22 -5 -8 28 24 16 -13 18 -14 -12 21 25 23 -7 -9 -4 27 -3 -6 -10
right_child=1 2 7 11 13 10 8 14 29 -11 19 15 17 -15 -16 -17 -18 -19 -20 -21 -22 -23 -24 -25 -26 -27 -28 -29 -30 -31
leaf_value=-0.11337698816274247 -0.10756598261900907 -0.081820045625077664 0.073393448381337642 -0.10760212834508541 -0.01459587750903445 -0.121800981137362 -0.0019325182566705583 0.097481832717656466 -0.070022985141969293 0.0031101102116309863 0.028273001844164036 -0.073249109747588803 -0.055992125284104813 -0.00042972859950040374 -0.093628601856009186 -0.017151232178161155 0.082636305654079978 -0.1009043858791276 0.036065041497290944 -0.033834396790582803 0.099845167076771518 0.087842708357619703 -0.072210148837847307 0.080747567197626269 0.030718694286997819 -0.0014560163004415805 -0.084936696101850354 0.079732109605127235 0.098327809048582113 -0.10694617490924418
leaf_weight=122.84126783907413 56.56080711632967 4.9913595765829069 20.465183660387993 10.513271510601042 6.5449564009904853 3.4858610928058607 87.338761508464813 390.1245891302824 184.85324421525002 62.00403505563736 69.390741035342216 5.2781268060207358 57.649005278944969 51.295239552855492 3.1676291674375525 31.598147034645081 34.780766896903515 40.213286355137825 15.864353999495505 36.659126475453377 65.717889495193958 47.285713776946068 66.951308906078339 7.6025615930557251 17.413122028112411 37.006658412516117 33.033898919820786 6.3089228570461273 31.776392042636871 66.819067239761353
leaf_count=923 389 27 148 71 36 24 514 3441 1224 365 335 23 337 218 23 135 235 223 85 187 560 402 356 41 117 253 188 35 218 449
internal_value=0 0.401978 0.696905 -0.609431 -0.211974 -0.415862 -0.710582 0.787094 -0.595759 0.5315 -0.213141 0.0991037 -0.342288 0.335533 0.931772 0.271514 0.62097 -0.590314 -0.36126 0.0680383 0.713501 0.534743 -0.595243 0.170725 0.946292 0.251972 -0.611528 0.0837417 0.790414 -0.798261
internal_weight=0 1017.79 687.519 657.749 330.267 240.65 575.579 643.185 452.738 232.479 184.09 82.1703 201.065 89.6166 410.705 71.657 40.0589 113.727 73.5134 106.05 170.475 104.758 78.0397 11.0884 407.538 57.4718 44.3342 11.3003 38.3213 251.672
internal_count=11582 7363 5559 4219 1804 1332 3755 5309 2832 1728 943 464 1159 472 3581 393 258 645 422 522 1363 803 421 65 3558 401 250 62 254 1673
shrinkage=0.1


Tree=15
num_leaves=31
num_cat=0
split_feature=0 2 5 15 2 3 4 3 5 1 1 2 6 2 5 1 6 3 3 5 3 10 2 6 4 11 16 6 6 6
split_gain=362.072 176.145 62.7905 45.0791 31.0399 29.8224 24.3695 23.0028 16.7294 16.1958 15.8434 13.7896 11.9925 10.1174 9.60654 8.81398 8.06495 7.76519 7.65497 7.63245 8.58536 7.72286 9.07217 7.62785 7.12086 6.82832 6.72522 6.6391 6.37504 6.95963
threshold=1.0000000180025095e-35 2.5000000000000004 6.0700184999999998 1.0000000180025095e-35 1.5000000000000002 22.500000000000004 1.0000000180025095e-35 23.500000000000004 9.5126945000000021 1.0000000180025095e-35 1.5000000000000002 5.5000000000000009 3.5000000000000004 1.5000000000000002 14.411375000000001 1.0000000180025095e-35 35.500000000000007 36.500000000000007 36.500000000000007 3.4273750000000009 19.500000000000004 1.0000000180025095e-35 3.5000000000000004 28.500000000000004 1.0000000180025095e-35 1.0000000180025095e-35 1.0000000180025095e-35 1.5000000000000002 11.500000000000002 35.500000000000007
decision_type=2 2 2 2 2 2 2 2 2 2 2 2 2 2 2 2 2 2 2 2 2 2 2 2 2 2 2 2 2 2
left_child=3 5 11 4 -1 8 9 27 13 19 14 12 -3 -2 -7 26 -14 -12 -5 -6 -21 -22 -23 -9 -16 -15 -10 -4 -8 -30
right_child=1 2 7 18 6 10 28 23 15 -11 17 -13 16 25 24 -17 -18 -19 -20 20 21 22 -24 -25 -26 -27 -28 -29 29 -31
leaf_value=-0.10331515321575734 -0.11146062926677591 -0.022957862976650371 -0.038155246734811347 -0.091526845054039421 -0.071038960620304112 -0.073320879227860916 -0.070712868321916936 0.02169741247647456 0.046309768992759522 0.083526106720363577 -0.039990303243932712 -0.083954991853463654 0.064111749964287118 -0.015767958925324201 0.056066130412950381 0.10928266666993521 -0.011996498463423077 0.05748028863986844 -0.0045713931760166891 0.061764547146783991 0.08193357472289281 -0.037394896512526532 0.048406871072499469 0.072641478906997473 -0.038607371062719338 0.10912883299735419 -0.063412465856664435 0.09337837173350208 0.055445397901243615 -0.071194098450326496
leaf_weight=52.149903260171413 10.26334924995899 46.826470665633678 3.8727603107690802 292.0495582446456 16.266359940171242 113.58922339975834 75.692383050918579 71.046561919152737 34.136156320571899 23.40725265443325 13.507427200675009 15.646318621933458 49.382802404463291 35.098003752529621 9.0330504924058896 20.077719815075397 19.390082933008671 20.69788546860218 10.487495213747023 19.88419434428215 8.0903512239456159 63.246028900146484 15.305183559656141 50.12853217869997 65.93700647354126 5.0010764151811591 6.6792326718568793 420.12962570041418 9.3007671833038348 8.1354509443044645
leaf_count=426 66 234 32 2199 99 694 425 438 192 138 56 89 297 170 41 167 114 87 72 101 38 304 72 389 333 23 32 4173 44 37
internal_value=0 0.369072 0.66247 -0.614728 -0.334071 -0.225085 -0.18174 0.811959 0.197726 0.07294 -0.43625 0.0415086 0.160759 -0.228667 -0.549836 0.55038 0.426535 0.189899 -0.885125 -0.0723775 0.0250462 -0.110955 -0.20677 0.427723 -0.272003 -0.00191083 0.283543 0.92177 -0.581555 -0.036425
internal_weight=0 1010.44 676.423 594.015 291.478 334.02 239.328 545.177 111.256 146.199 222.765 131.246 115.599 50.3624 188.559 60.8931 68.7729 34.2053 302.537 122.792 106.526 86.6416 78.5512 121.175 74.9701 40.0991 40.8154 424.002 93.1286 17.4362
internal_count=11582 7627 5766 3955 1684 1861 1258 5032 650 752 1211 734 645 259 1068 391 411 143 2271 614 515 414 376 827 374 193 224 4205 506 81
shrinkage=0.1


Tree=16
num_leaves=31
num_cat=0
split_feature=0 2 5 15 2 3 3 4 5 1 5 1 1 3 2 6 3 6 4 0 5 3 6 2 5 6 2 6 2 10
split_gain=308.565 151.871 57.1213 41.0715 27.9175 25.9667 22.5713 20.3908 16.117 13.7704 13.2153 12.3054 9.67309 13.3693 7.97398 7.41272 7.13247 6.87724 6.7641 10.5728 6.54411 8.64691 6.06872 5.7747 6.82069 5.74832 5.93291 5.72419 5.69717 5.62551
threshold=1.0000000180025095e-35 2.5000000000000004 6.0700184999999998 1.0000000180025095e-35 1.5000000000000002 20.500000000000004 23.500000000000004 1.0000000180025095e-35 4.7067660000000009 1.0000000180025095e-35 5.9499340000000016 1.0000000180025095e-35 1.5000000000000002 24.500000000000004 5.5000000000000009 2.5000000000000004 34.500000000000007 28.500000000000004 1.0000000180025095e-35 1.5000000000000002 4.7067660000000009 27.500000000000004 1.5000000000000002 1.5000000000000002 2.7397475000000004 35.500000000000007 3.5000000000000004 3.5000000000000004 1.5000000000000002 1.0000000180025095e-35
decision_type=2 2 2 2 2 2 2 2 2 2 2 2 2 2 2 2 2 2 2 2 2 2 2 2 2 2 2 2 2 2
left_child=3 5 11 4 -1 10 22 9 -7 20 28 14 13 15 18 -10 -5 29 25 -20 -6 -22 -4 -18 -25 26 27 -3 -2 -8
right_child=1 2 6 16 7 8 17 -9 12 -11 -12 -13 -14 -15 -16 -17 23 -19 19 -21 21 -23 -24 24 -26 -27 -28 -29 -30 -31
leaf_value=-0.099931822347502808 -0.12242434911983291 -0.076300125281027323 -0.033372357152573383 -0.088392153507639293 -0.052160455512046858 -0.078426672580283407 0.078998655929151979 -0.053876075255972988 -0.11961516261429628 0.078708239341539088 0.075077470700601376 0.0647690492402858 0.030909290844696815 -0.050984256450904278 -0.086639351876207915 0.015982611974178215 -0.097420580470173074 0.068968266333488307 -0.067426535116654862 0.021989945237087073 0.019097570658689271 -0.059440313945756121 0.090754120814770203 0.10645154011538611 -0.075388122643010869 -0.061405471997251083 0.085070111158382325 0.052384736736677928 0.0033628112167400255 0.00624234294588952
leaf_weight=48.703285403549671 4.5356656908988979 5.9265528470277777 3.9789627119898787 271.18395960330963 25.036612376570702 62.812187857925892 13.051138214766977 90.639481917023659 4.3263238966464987 22.408953152596951 37.455798625946045 26.378338642418385 31.042069211602211 108.95821917057037 12.497824966907499 59.170452177524567 5.2852552384138098 47.649595804512501 27.584042400121689 25.400993816554546 79.350960358977318 17.026517644524574 390.58294748514891 5.2665993422269803 3.390881322324276 5.7525694817304602 18.097845628857613 8.2944231405854207 17.467484086751938 57.220792911946774
leaf_count=426 32 31 32 2174 151 407 78 506 22 138 290 178 132 612 73 283 44 389 139 130 374 89 4173 33 20 32 100 51 83 360
internal_value=0 0.348113 0.630149 -0.580151 -0.310387 -0.208064 0.780293 -0.167281 -0.341468 0.0668319 0.389437 0.0379441 -0.204792 -0.297292 -0.117376 0.0674372 -0.848059 0.39641 -0.0145711 -0.245603 -0.0661021 0.0522268 0.895024 -0.150535 0.352303 0.306963 0.470899 -0.0124433 -0.225666 0.197549
internal_weight=0 968.184 642.416 568.293 283.166 325.768 512.483 234.463 266.309 143.823 59.4589 129.933 203.497 172.455 103.554 63.4968 285.127 117.922 91.0564 52.985 121.414 96.3775 394.562 13.9427 8.65748 38.0714 32.3188 14.221 22.0031 70.2719
internal_count=11582 7627 5766 3955 1684 1861 5032 1258 1456 752 405 734 1049 917 556 305 2271 827 483 269 614 463 4205 97 53 214 182 82 115 438
shrinkage=0.1


Tree=17
num_leaves=31
num_cat=0
split_feature=0 2 15 15 2 3 1 4 2 3 3 1 5 1 14 5 5 1 2 10 3 5 5 6 6 5 3 4 2 5
split_gain=262.593 130.94 52.1362 37.4872 25.0939 23.8143 22.4187 16.9403 16.7912 16.6269 15.3079 11.7035 10.8347 10.764 7.06441 6.94967 7.82036 6.94008 6.79975 6.08205 7.55399 6.69414 5.93363 5.74222 5.6987 5.67686 6.12861 5.6738 5.65171 5.59255
threshold=1.0000000180025095e-35 2.5000000000000004 1.0000000180025095e-35 1.0000000180025095e-35 1.5000000000000002 23.500000000000004 1.0000000180025095e-35 1.0000000180025095e-35 1.5000000000000002 24.500000000000004 21.500000000000004 1.0000000180025095e-35 15.134255000000001 1.0000000180025095e-35 1.0000000180025095e-35 16.602270000000004 52.877135000000003 1.0000000180025095e-35 5.5000000000000009 1.0000000180025095e-35 24.500000000000004 2.9225200000000009 1.1390105000000001 11.500000000000002 35.500000000000007 0.70146700000000017 26.500000000000004 1.0000000180025095e-35 5.5000000000000009 12.208360000000001
decision_type=2 2 2 2 2 2 2 2 2 2 2 2 2 2 2 2 2 2 2 2 2 2 2 2 2 2 2 2 2 2
left_child=3 6 5 4 -1 12 8 11 -2 14 -8 19 13 -3 27 28 -17 -5 25 -6 21 -21 -19 -9 -25 -4 -27 -10 -7 -11
right_child=1 2 18 17 7 15 10 23 9 29 -12 -13 -14 -15 -16 16 -18 22 -20 20 -22 -23 -24 24 -26 26 -28 -29 -30 -31
leaf_value=-0.096618670749338401 -0.096630081594934941 0.042569308985098711 -0.094369049090208268 -0.086683914257503089 0.07320554042096028 0.016379024056834675 0.092708076540431117 -0.062151561616584805 0.043660844562213558 -0.077652858635841565 -0.0013377695396041501 0.074127592893665842 0.094767581701212189 0.0959283297402303 0.023081722036136513 0.063874222071537104 -0.11416360570490131 -0.10268996381976495 -0.09847655994987943 -0.073064184343210423 -0.055072659109026867 0.014307723311099625 -0.002733049367321585 0.055283044932242467 -0.059864017509531277 0.0175289806055525 -0.075252956666879312 -0.058791789752965153 -0.1128553106282003 -0.028257206691570114
leaf_weight=45.502717293798923 38.020474135875702 105.06869570910931 6.9172790944576255 241.10630902647972 8.9627332240343076 60.953343421220779 23.293711684644222 71.376809343695641 7.0356695502996471 48.502609521150589 67.348468720912933 21.464458495378494 252.69991029053926 59.055096209049225 67.094919309020042 58.193688675761223 2.5764174759387961 8.6216331273317355 10.024026572704313 10.006086915731428 30.23907408118248 70.928460851311684 19.084599077701569 9.3016779869794863 7.989966318011283 42.878286734223366 8.5366411209106428 23.327717877924442 3.5828608870506278 43.457877710461617
leaf_count=426 263 973 34 2107 43 344 203 425 35 346 295 138 2932 631 355 489 20 80 62 66 159 346 84 44 37 219 41 122 21 242
internal_value=0 0.328003 0.59906 -0.54663 -0.287595 0.702829 -0.192231 -0.1535 -0.359829 -0.238096 0.228306 0.0611312 0.817744 0.61769 0.0497004 0.320571 0.563261 -0.812371 -0.22393 -0.0603886 -0.124275 0.0350577 -0.338377 -0.496261 0.0207693 -0.0931855 0.02124 -0.350519 0.0920431 -0.543099
internal_weight=0 928.568 610.486 544.585 275.772 542.13 318.081 230.269 227.439 189.419 90.6422 141.601 416.824 164.124 97.4583 125.306 60.7701 268.813 68.3562 120.136 111.174 80.9345 27.7062 88.6685 17.2916 58.3322 51.4149 30.3634 64.5362 91.9605
internal_count=11582 7627 5766 3955 1684 5410 1861 1258 1363 1100 498 752 4536 1604 512 874 509 2271 356 614 571 412 164 506 81 294 260 157 365 588
shrinkage=0.1


Tree=18
num_leaves=31
num_cat=0
split_feature=6 2 5 1 2 2 5 3 3 5 5 1 0 5 6 3 4 2 3 1 0 3 5 5 1 9 3 5 3 2
split_gain=227.376 105.193 50.7552 30.2705 25.543 23.2396 21.6107 16.271 14.2836 19.5905 14.179 12.7909 11.1912 11.1464 10.7119 10.2563 9.176 9.09536 7.96628 7.81161 8.64825 7.73381 8.75914 8.3256 7.4484 7.42985 7.34778 6.56547 6.25871 6.07893
threshold=4.5000000000000009 2.5000000000000004 1.9573670000000003 1.0000000180025095e-35 1.5000000000000002 1.5000000000000002 14.947425000000001 22.500000000000004 25.500000000000004 1.0874690000000002 12.208360000000001 1.0000000180025095e-35 1.0000000180025095e-35 1.1390105000000001 44.500000000000007 21.500000000000004 1.0000000180025095e-35 5.5000000000000009 52.500000000000007 1.0000000180025095e-35 1.5000000000000002 28.500000000000004 2.7397475000000004 1.9220230000000003 1.0000000180025095e-35 1.0000000180025095e-35 30.500000000000004 44.106645000000007 19.500000000000004 3.5000000000000004
decision_type=2 2 2 2 2 2 2 2 2 2 2 2 2 2 2 2 2 2 2 2 2 2 2 2 2 2 2 2 2 2
left_child=3 5 29 4 -1 11 7 19 9 -6 24 -2 16 -5 26 -12 25 -14 -10 20 28 22 -15 -23 -7 -11 -8 -17 -4 -3
right_child=1 2 6 13 8 10 14 -9 18 12 15 -13 17 21 -16 27 -18 -19 -20 -21 -22 23 -24 -25 -26 -27 -28 -29 -30 -31
leaf_value=-0.10553035859138443 -0.097066862026447889 0.013915464886517371 0.063019041914492133 -0.097189947612578098 -0.090946894580751211 -0.049216668443821811 0.088228762406422134 -0.0032319673288518885 -0.082016983591126136 -0.022920190134054011 0.060504237775640714 0.025709214193133281 0.011628435389493857 -0.020293263512861721 -0.10624454665538825 0.010612181234306801 -0.066419047811829529 -0.14586114286594337 0.069431748614254538 0.090785336418822749 0.077574130400457797 0.096864855065723149 0.083710602017738431 -0.044193099788949593 0.017076063144465692 0.11515720249224504 0.017782049510402475 -0.062198993401908403 -0.010205921001302957 -0.074691271176352186
leaf_weight=92.883889004588127 44.618054255843163 10.583557784557341 17.807494632899761 8.5512455180287343 51.046835586428642 68.993187077343464 299.73302447795868 58.702422142028809 109.14363219588995 63.925756461918354 39.807247370481491 10.478145763278006 86.402476646006107 11.52513727545738 2.9641015902161589 98.387286156415939 68.101693667471409 3.8295761644840232 3.587312400341033 50.804616637527943 38.612702250480652 5.1830663233995464 27.229580737650394 21.713700115680695 22.467822797596455 4.1500365138053885 15.575261712074278 14.167546421289442 33.881257526576519 28.845610193908215
leaf_count=923 389 62 148 71 430 413 3441 365 803 441 296 50 536 55 23 468 545 26 25 560 402 22 221 95 123 26 117 65 253 188
internal_value=0 0.328015 0.584639 -0.49266 -0.584004 -0.150613 0.667878 0.410111 -0.471812 -0.349855 -0.0180684 -0.737174 -0.223683 0.102003 0.829702 0.168769 -0.404658 0.0494435 -0.771976 0.594169 0.417686 0.241881 0.527812 -0.170109 -0.329316 -0.145027 0.847489 0.0144726 0.150211 -0.509075
internal_weight=0 856.429 557.51 557.274 483.071 298.919 518.081 199.808 390.187 277.456 243.823 55.0962 226.41 74.2027 318.272 152.362 136.177 90.2321 112.731 141.106 90.3015 65.6515 38.7547 26.8968 91.461 68.0758 315.308 112.555 51.6888 39.4292
internal_count=11582 7363 5559 4219 3755 1804 5309 1728 2832 2004 1365 439 1574 464 3581 829 1012 562 828 1363 803 393 276 117 536 467 3558 533 401 250
shrinkage=0.1


Tree=19
num_leaves=31
num_cat=0
split_feature=0 2 5 15 3 2 4 5 4 3 1 1 5 1 7 1 3 0 6 6 2 4 0 6 3 5 3 4 5 5
split_gain=195.85 98.4164 42.3576 31.2073 20.3714 20.3509 18.2086 13.6544 12.7725 8.78207 8.70261 8.46472 8.41794 7.96046 7.26006 7.12651 6.82155 6.37206 6.17371 5.89847 5.85519 6.2531 6.18172 6.04599 5.25758 5.25469 7.78646 6.07772 5.84685 11.6604
threshold=1.0000000180025095e-35 2.5000000000000004 6.0700184999999998 1.0000000180025095e-35 23.500000000000004 1.5000000000000002 1.0000000180025095e-35 7.7891804999999996 1.0000000180025095e-35 24.500000000000004 1.0000000180025095e-35 1.0000000180025095e-35 1.2701695000000004 1.5000000000000002 1.0000000180025095e-35 1.0000000180025095e-35 34.500000000000007 1.5000000000000002 1.5000000000000002 11.500000000000002 6.5000000000000009 1.0000000180025095e-35 1.5000000000000002 35.500000000000007 36.500000000000007 1.1390105000000001 24.500000000000004 1.0000000180025095e-35 1.4221790000000001 1.9573670000000003
decision_type=2 2 2 2 2 2 2 2 2 2 2 2 2 2 2 2 2 2 2 2 2 2 2 2 2 2 2 2 2 2
left_child=3 6 11 5 18 -1 12 -8 10 14 -7 20 -2 -11 -9 -14 25 -6 -4 -16 21 23 -23 -3 -15 -5 27 28 -27 -30
right_child=1 2 4 16 17 8 7 9 -10 13 -12 -13 15 24 19 -17 -18 -19 -20 -21 -22 22 -24 -25 -26 26 -28 -29 29 -31
leaf_value=-0.091350243393346756 -0.12319900365248837 0.041691836729217155 -0.046587920552793698 -0.098553079597793053 0.00026300613466425499 -0.0050307277715786738 -0.060824312833845665 0.045045547640833988 -0.044167549787625132 -0.044407188627383631 0.066588562365406223 0.056586755461568994 0.016422663327004938 -0.031627910999602722 -0.12006571324619986 0.090041603256628647 -0.0037258058427755304 0.05036608007806484 0.083441862080755547 0.008868537447221948 -0.1145800599630455 -0.060079499616829027 0.0082582338139278438 -0.062100111661161889 0.06292024958694635 0.038784581878704816 -0.10198798747917714 -0.076219457876565949 -0.090489856450197748 0.024295882317382902
leaf_weight=39.573805943131447 3.3670142814517012 34.498840525746346 3.6937963366508475 86.952318288385868 40.10236706584692 117.2910719960928 86.071931086480618 38.128978110849857 84.113091506063938 76.16593087464571 19.835669793188572 23.584983214735985 42.527503982186317 10.423228666186334 5.4295665994286528 19.034458555281162 12.630368478596209 69.158481359481812 318.20936800539494 10.239659287035463 5.0850065276026717 27.451548166573048 25.563528083264828 6.7026836797595015 13.497372940182684 10.787108890712259 44.288020119071007 48.615467637777328 22.27921923995018 14.681876249611376
leaf_count=426 25 202 32 892 273 614 591 235 506 443 138 178 241 43 28 139 97 554 4173 58 37 144 136 37 58 94 419 455 202 112
internal_value=0 0.294149 0.545249 -0.49255 0.692861 -0.25303 -0.162161 -0.289283 -0.13489 -0.11088 0.0532915 0.0273321 0.307643 -0.286025 0.21496 0.39185 -0.752587 0.319766 0.819498 -0.358087 -0.100575 -0.0441624 -0.271275 0.248069 0.217216 -0.792283 -0.672815 -0.513306 -0.259897 -0.448941
internal_weight=0 858.936 554.051 501.048 431.164 260.814 304.886 239.957 221.24 153.885 137.127 122.887 64.929 100.087 53.7982 61.562 240.234 109.261 321.903 15.6692 99.3016 94.2166 53.0151 41.2015 23.9206 227.604 140.652 96.3637 47.7482 36.9611
internal_count=11582 7627 5766 3955 5032 1684 1861 1456 1258 865 752 734 405 544 321 380 2271 827 4205 86 556 519 280 239 101 2174 1282 863 408 314
shrinkage=0.1


Tree=20
num_leaves=31
num_cat=0
split_feature=6 2 5 2 5 4 2 3 2 1 5 1 0 5 5 3 3 0 5 0 6 8 1 3 3 5 3 5 4 1
split_gain=168.538 78.9935 40.4075 26.1648 19.5905 21.1882 18.5312 16.5601 13.9611 11.5758 10.8728 10.6836 10.4732 8.81661 8.82603 8.11495 8.042 7.45164 6.83842 6.61368 7.20949 7.48263 6.30233 7.32403 6.24342 10.4959 6.18949 6.00455 5.01955 4.9995
threshold=4.5000000000000009 2.5000000000000004 4.0919365000000001 1.5000000000000002 1.1390105000000001 1.0000000180025095e-35 1.5000000000000002 21.500000000000004 4.5000000000000009 1.0000000180025095e-35 12.208360000000001 1.0000000180025095e-35 1.5000000000000002 14.947425000000001 49.247795000000004 20.500000000000004 21.500000000000004 1.0000000180025095e-35 4.5490120000000012 1.5000000000000002 13.500000000000002 1.0000000180025095e-35 1.0000000180025095e-35 18.500000000000004 19.500000000000004 1.9573670000000003 37.500000000000007 44.106645000000007 1.0000000180025095e-35 1.0000000180025095e-35
decision_type=2 2 2 2 2 2 2 2 2 2 2 2 2 2 2 2 2 2 2 2 2 2 2 2 2 2 2 2 2 2
left_child=3 6 8 22 -5 11 9 17 -3 -2 24 -6 16 19 -15 -12 18 28 -7 20 21 -9 -1 -24 25 -8 -18 -17 -4 -26
right_child=1 2 7 4 5 12 10 13 -10 -11 15 -13 -14 14 -16 27 26 -19 -20 -21 -22 -23 23 -25 29 -27 -28 -29 -30 -31
leaf_value=-0.10224324365254933 -0.092368231707776971 0.013085309777592936 0.058685794381230651 -0.083659405666546879 -0.0079604093877185117 -0.047531228708284488 -0.1256308859789963 -0.060820259034096581 -0.084647359684046658 0.026526841687550637 0.066995290152115722 0.062942178700542514 0.0046775085554312925 0.064813025641797958 -0.057597140162077912 0.013029076080210911 -0.075841933432193309 0.085843913155596474 0.032649304095969445 0.047496654261859894 0.071613918543517424 0.065692874697740919 -0.099961319513227717 0.069856023443454512 -0.054732158861676317 0.076800672694363012 -0.0033926107462884272 -0.055648355046052533 -0.03024066853382559 0.0071321700299781304
leaf_weight=80.350305281579494 39.714404061436653 42.090928845107555 23.181189939379692 66.197054073214531 125.78814108669758 30.882829941809177 3.3101531267166129 24.970408752560619 22.392160840332508 10.315970197319983 25.477980375289917 25.572096109390259 35.133152924478054 102.47649421542883 6.2494114041328421 108.95371732115746 113.45425860583782 233.7645165771246 16.225524351000786 29.3942786231637 7.6053571701049796 5.7519002482295027 5.3085681796073896 4.8692768290638924 56.78864099830389 11.322212904691694 13.159742079675196 14.41503821313381 8.7409671694040316 16.965694852173328
leaf_count=923 389 251 146 619 864 241 30 157 150 50 229 187 235 1108 59 532 897 3296 109 257 59 36 42 25 349 77 77 68 40 80
internal_value=0 0.293452 0.530982 -0.440255 -0.336594 -0.244709 -0.125455 0.638836 -0.20853 -0.678528 -0.008817 0.0401848 -0.451175 0.401353 0.577771 0.156154 -0.55188 0.796552 -0.199147 0.11812 -0.155553 -0.371342 -0.928527 -0.187174 -0.286634 0.310063 -0.683118 0.0500445 0.343358 -0.405015
internal_weight=0 793.881 506.618 516.941 426.413 360.216 287.264 442.135 64.4831 50.0304 237.233 151.36 208.856 176.448 108.726 148.847 173.722 265.687 47.1084 67.7219 38.3277 30.7223 90.5282 10.1778 88.3867 14.6324 126.614 123.369 31.9222 73.7543
internal_count=11582 7363 5559 4219 3229 2610 1804 5158 401 439 1365 1051 1559 1676 1167 829 1324 3482 350 509 252 193 990 67 536 107 974 600 186 429
shrinkage=0.1


Tree=21
num_leaves=31
num_cat=0
split_feature=0 2 5 2 5 3 3 3 3 5 5 6 1 8 5 11 2 3 5 6 1 2 5 6 14 3 5 1 5 3
split_gain=145.974 72.8154 32.6518 27.018 21.8542 19.146 19.0208 14.9642 11.0739 10.0157 9.30508 8.65619 10.7091 8.89146 8.48464 7.59584 6.92892 6.71151 8.92684 6.67227 6.49801 6.09599 5.93707 8.02476 9.57846 6.115 5.58907 5.57228 5.89326 5.53745
threshold=1.0000000180025095e-35 2.5000000000000004 6.0700184999999998 1.5000000000000002 1.9220230000000003 19.500000000000004 23.500000000000004 19.500000000000004 34.500000000000007 4.7067660000000009 1.2999505000000002 4.5000000000000009 1.0000000180025095e-35 1.0000000180025095e-35 11.278235 1.0000000180025095e-35 7.5000000000000009 25.500000000000004 14.647254999999999 2.5000000000000004 1.0000000180025095e-35 4.5000000000000009 14.411375000000001 35.500000000000007 1.0000000180025095e-35 21.500000000000004 17.802025 1.0000000180025095e-35 15.134255000000001 41.500000000000007
decision_type=2 2 2 2 2 2 2 2 2 2 2 2 2 2 2 2 2 2 2 2 2 2 2 2 2 2 2 2 2 2
left_child=3 7 16 -1 8 21 27 10 -5 -9 -2 17 13 14 -13 19 20 18 -7 -11 -3 -6 -21 24 -24 -25 -19 28 -4 -17
right_child=1 2 6 4 5 11 -8 9 -10 15 -12 12 -14 -15 -16 29 -18 26 -20 22 -22 -23 23 25 -26 -27 -28 -29 -30 -31
leaf_value=-0.092548035653706492 -0.10278310299655724 -0.0035446395374988436 0.039251400825380145 -0.072450556817128461 0.062419488038716581 -0.0096465511653148397 0.026874393757496826 -0.058453942400367644 0.086587985148492419 -0.077810332242733093 0.065475708282295542 -0.070087772198141621 0.078061161976923962 0.083540071510826583 -0.0015741705498422726 0.022125737369038622 -0.13137352454769333 -0.08620471094505891 -0.10309576743459986 -0.034135020099669219 0.056839736223561345 -0.067560609459105594 -0.03402168568392186 0.10083573782050895 0.048319716431508175 -0.059071495760474192 0.045721939650771773 0.094215298853374291 0.078669583933202128 0.15815428727188954
leaf_weight=92.299396514892578 3.6705135628581038 93.883274547755718 56.952199757099152 118.75292401015759 35.13629175722599 57.386046014726162 104.06801643967628 57.604639954864979 4.5458175614476195 16.911258645355701 31.434645630419254 30.029459446668625 13.369609385728834 7.763750731945037 45.404524773359299 18.915574282407764 3.684801720082759 41.203245788812637 12.437807060778139 68.266037687659264 21.996303342282772 4.0211370363831511 20.356319084763527 2.6668670997023609 46.167816951870918 23.156026259064674 3.4826809689402571 111.98357896506786 113.54570923000574 3.5550482124090186
leaf_count=1123 29 530 743 1225 215 401 827 438 28 115 267 172 85 41 212 109 28 329 76 397 176 24 105 20 246 115 24 1722 1740 20
internal_value=0 0.263344 0.492948 -0.440999 -0.321285 -0.151496 0.634211 -0.133661 -0.665871 -0.21713 0.47883 -0.270635 -0.0501143 -0.183609 -0.288487 -0.111305 0.0362479 -0.456602 -0.262928 -0.180641 0.0791754 0.490716 -0.117733 0.0475721 0.231233 -0.42557 -0.759228 0.768851 0.655025 0.436466
internal_weight=0 798.819 506.114 465.833 373.533 250.235 386.55 292.705 123.299 257.6 35.1052 211.077 96.5673 83.1977 75.434 199.995 119.564 114.51 69.8239 177.524 115.88 39.1574 160.613 92.347 66.5241 25.8229 44.6859 282.481 170.498 22.4706
internal_count=11582 7627 5766 3955 2832 1579 5032 1861 1253 1565 296 1340 510 425 384 1127 734 830 477 998 706 239 883 486 351 135 353 4205 2483 129
shrinkage=0.1


Tree=22
num_leaves=31
num_cat=0
split_feature=15 2 6 1 2 5 3 1 3 5 6 3 3 2 3 8 10 3 5 6 5 4 5 5 6 0 5 5 6 6
split_gain=125.307 94.5358 23.7701 19.0047 21.6106 13.2102 13.1959 10.9181 10.9431 10.3719 9.44304 9.04506 8.74734 8.13143 7.341 9.11263 8.62313 6.88573 6.63698 6.59744 10.8562 5.79802 6.94147 6.70681 5.40648 6.13095 5.39831 7.18145 4.99815 4.50645
threshold=1.0000000180025095e-35 2.5000000000000004 11.500000000000002 1.0000000180025095e-35 1.5000000000000002 1.1390105000000001 19.500000000000004 1.0000000180025095e-35 25.500000000000004 7.2270305000000006 44.500000000000007 21.500000000000004 26.500000000000004 1.5000000000000002 28.500000000000004 1.0000000180025095e-35 1.0000000180025095e-35 20.500000000000004 8.573199500000003 35.500000000000007 6.250795000000001 1.0000000180025095e-35 1.9220230000000003 1.4620225000000002 10.500000000000002 1.5000000000000002 1.5288800000000002 1.9060675 2.5000000000000004 37.500000000000007
decision_type=2 2 2 2 2 2 2 2 2 2 2 2 2 2 2 2 2 2 2 2 2 2 2 2 2 2 2 2 2 2
left_child=1 3 6 4 -1 -2 -3 8 13 19 17 -5 18 -7 15 16 -8 -11 -6 20 -4 22 23 -15 25 -18 -9 -28 -20 -30
right_child=5 2 9 11 12 7 14 26 -10 10 -12 -13 -14 21 -16 -17 24 -19 28 -21 -22 -23 -24 -25 -26 -27 27 -29 29 -31
leaf_value=-0.092708698179120794 -0.083744430110006374 0.067452113273816686 0.09929268866317785 0.074097179437007166 -0.031014073370935716 -0.091035250754913005 0.095634521587637106 0.086595309536598969 -0.086237775449386878 0.091612996014645662 -0.10626069115944106 0.0027886834876732769 -0.047080572172872134 0.031495721070669051 -0.04535775512936828 0.078197748577444381 -0.0094947464618060067 0.059206046837454 -0.051897197193998379 -0.017196232586409153 -0.069968654204769373 -0.043550364988252904 0.046262574496173617 -0.065548020795398718 -0.057728259997458821 0.048650980242608277 -0.095421131852630584 0.022304162285817573 0.023859687529123669 -0.06462627571903419
leaf_weight=47.208274260163307 98.07248467206955 47.384646110236645 16.368543125689033 23.944071419537067 64.836306117475033 20.823128499090672 9.6970988363027555 7.6035355925559989 55.976102314889431 122.88147757947445 2.9279296249151221 69.187473058700562 75.136050783097744 11.479213267564775 22.671085588634014 20.13904719799757 66.446017026901245 140.56673710793257 11.601753808557985 22.919445797801018 4.930831726640462 62.20375582575798 20.874127425253391 18.760750405490398 15.370287183672188 24.940516371279955 7.0558662265539196 19.508106574416161 84.316368229687214 6.1772046759724608
leaf_count=566 1093 558 127 229 401 264 68 34 576 1985 23 311 520 95 119 198 482 1796 79 166 49 537 137 166 133 250 35 107 450 28
internal_value=0 0.19533 0.474056 -0.181673 -0.308164 -0.53131 0.211242 -0.397447 -0.490981 0.648915 0.723369 0.211221 -0.187461 -0.335999 0.0734057 0.160872 0.0534606 0.743218 -0.0599278 0.2004 0.601085 -0.230457 0.0190763 -0.287098 -0.0285516 0.0637394 0.123001 -0.0896578 0.0989716 0.178195
internal_weight=0 899.651 517.244 382.408 289.276 322.357 206.649 224.285 190.117 310.595 266.376 93.1315 242.068 134.141 159.264 136.593 116.454 263.448 166.932 44.2188 21.2994 113.318 51.1141 30.24 106.757 91.3865 34.1675 26.564 102.095 90.4936
internal_count=11582 8538 5954 2584 2044 3044 1808 1951 1775 4146 3804 540 1478 1199 1250 1131 933 3781 958 342 176 935 398 261 865 732 176 142 557 478
shrinkage=0.1


Tree=23
num_leaves=31
num_cat=0
split_feature=0 3 5 2 5 1 3 2 6 6 3 5 3 9 3 6 2 8 0 2 6 1 6 2 2 1 2 7 0 1
split_gain=109.638 55.3941 32.25 23.0671 17.0177 15.5171 13.9628 12.0674 11.007 10.7299 9.46299 8.5945 8.49619 7.28983 8.66038 10.0022 7.84664 7.37565 6.77634 6.68586 7.84448 6.06251 6.00474 7.15239 5.89226 5.73751 5.17969 5.0752 13.0961 5.0661
threshold=1.0000000180025095e-35 24.500000000000004 5.9839090000000015 1.5000000000000002 1.9220230000000003 1.0000000180025095e-35 19.500000000000004 3.5000000000000004 11.500000000000002 1.5000000000000002 34.500000000000007 1.0874690000000002 20.500000000000004 1.0000000180025095e-35 22.500000000000004 12.500000000000002 3.5000000000000004 1.0000000180025095e-35 1.5000000000000002 5.5000000000000009 12.500000000000002 1.0000000180025095e-35 35.500000000000007 1.5000000000000002 6.5000000000000009 1.5000000000000002 4.5000000000000009 1.0000000180025095e-35 2.5000000000000004 1.0000000180025095e-35
decision_type=2 2 2 2 2 2 2 2 2 2 2 2 2 2 2 2 2 2 2 2 2 2 2 2 2 2 2 2 2 2
left_child=3 2 11 21 10 7 26 9 25 -4 -5 -2 -11 14 17 16 -16 -8 -14 27 -21 -1 23 -13 29 -3 -6 -9 -29 -25
right_child=1 8 5 4 6 -7 13 19 -10 12 -12 22 18 -15 15 -17 -18 -19 -20 20 -22 -23 -24 24 -26 -27 -28 28 -30 -31
leaf_value=-0.099008036553262263 -0.060402964198377034 -0.040141982465954545 -0.15265402465572697 -0.066854252101535949 0.054233273760303929 0.088207281481938571 -0.012771589766353467 0.085632457399008766 0.0098509614147160862 0.063385403826642969 0.080389356636173803 -0.094197414472351762 -0.011774120221717279 0.035356533436035321 -0.072881101661791681 0.01900730949798863 0.022712958884737608 0.1145913312597836 0.048837003957138796 -0.14045658143688666 0.050196676125531393 -0.019162354259875749 -0.040988064475151277 0.021943872727752438 -0.10090898231582497 0.017957529852658409 -0.066347870397241174 0.058860415134828363 -0.239648881860626 0.084787172598541363
leaf_weight=69.180013820528984 19.061840057373047 126.34149369597435 3.3662238568067542 107.45222272723913 34.28116250783205 120.04881319403648 73.512622721493244 84.808512654155493 107.40027443319559 44.536243237555027 4.5495104715228072 5.0707628056406966 53.574709217995405 18.70766157656908 79.066485576331615 18.134009748697281 9.6327261328697187 4.8466598242521277 28.130787294358015 3.1130662709474546 7.035355381667614 11.024760894477366 18.145766213536263 76.352646499872208 3.4344279244542113 19.639429695904255 3.9755474776029578 10.252626452594994 1.715626012533902 15.418321296572683
leaf_count=1049 131 890 22 1225 215 1969 433 1347 759 596 28 53 410 115 607 91 64 30 312 37 118 74 112 434 28 86 24 163 25 135
internal_value=0 0.23566 0.430616 -0.396078 -0.286412 0.589258 -0.137334 0.440644 -0.144483 0.235488 -0.608732 0.0191572 0.282472 -0.241345 -0.301442 -0.486645 -0.624996 -0.0489397 0.0909398 0.689322 -0.0828692 -0.880326 0.119469 0.215259 0.276894 -0.323256 0.417028 0.770297 0.160697 0.325021
internal_weight=0 747.447 494.066 434.363 354.159 356.582 242.157 236.533 253.381 129.608 112.002 137.484 126.242 203.9 185.193 106.833 88.6992 78.3593 81.7055 106.925 10.1484 80.2048 118.422 100.276 95.2054 145.981 38.2567 96.7768 11.9683 91.771
internal_count=11582 7627 5892 3955 2832 4999 1579 3030 1735 1340 1253 893 1318 1340 1225 762 671 463 722 1690 155 1123 762 650 597 976 239 1535 188 569
shrinkage=0.1


Tree=24
num_leaves=31
num_cat=0
split_feature=15 2 5 1 2 1 5 5 3 8 5 3 3 3 3 6 2 10 5 3 2 3 5 4 5 3 6 3 3 3
split_gain=92.8255 71.8586 20.8542 14.0269 18.5043 13.0723 11.5341 9.80688 9.65088 8.85676 7.27732 7.02637 6.99626 6.69546 6.64119 6.53497 5.98957 5.29402 5.28211 5.25845 5.00169 6.32213 7.20454 8.00339 6.70712 6.17161 4.78682 4.75981 4.54251 4.18594
threshold=1.0000000180025095e-35 2.5000000000000004 18.968765000000001 1.0000000180025095e-35 1.5000000000000002 1.0000000180025095e-35 1.1390105000000001 1.4620225000000002 30.500000000000004 1.0000000180025095e-35 43.309745000000014 21.500000000000004 34.500000000000007 26.500000000000004 25.500000000000004 28.500000000000004 6.5000000000000009 1.0000000180025095e-35 8.573199500000003 26.500000000000004 1.5000000000000002 25.500000000000004 1.9220230000000003 1.0000000180025095e-35 7.7891804999999996 42.500000000000007 2.5000000000000004 22.500000000000004 41.500000000000007 27.500000000000004
decision_type=2 2 2 2 2 2 2 2 2 2 2 2 2 2 2 2 2 2 2 2 2 2 2 2 2 2 2 2 2 2
left_child=1 3 5 4 -1 9 -2 12 10 16 26 -5 14 18 -8 -10 17 29 -6 -7 -9 22 -22 24 -24 -23 -4 -19 -13 -3
right_child=6 2 8 11 13 19 7 20 15 -11 -12 28 -14 -15 -16 -17 -18 27 -20 -21 21 25 23 -25 -26 -27 -28 -29 -30 -31
leaf_value=-0.088763161422249631 -0.078243023905124096 0.10244960556914535 -0.002928113566099351 0.06747752543864334 -0.027868467089877186 0.072972318399444472 0.018633526720153708 -0.084756553054422853 -0.092680566108789414 0.061009417942469994 0.014161010648541972 -0.011548783197420896 0.14621529908116376 -0.041913641579172677 -0.082582497946096789 0.055014693433152718 -0.12198289403058792 0.015739157780748508 0.0090191735009594234 -0.015004515863937079 -0.05442491497381368 -0.083564561715026867 0.058303305891231873 -0.035779647945264025 -0.11292044619130504 0.023457595783172181 0.084976656570108555 -0.019019794819900404 0.049760789625024983 -0.0067719101553369472
leaf_weight=41.593954306095839 87.281380981206894 10.0183481387794 6.4586099758744231 21.825141940265894 63.307242259383202 62.925854284316301 29.500913605093956 27.414655186235905 5.9412331506609899 34.060836691409349 17.930148079991341 53.246103689074516 3.3968076929450026 71.59668442606926 8.3082422465085966 6.0427685678005219 3.6090440005064002 107.44057002291083 100.35621080547571 7.6162291243672362 42.554333858191967 39.214502580463886 22.988179795444015 28.577615283429623 2.5405839458107939 6.2466154620051375 151.61753231659532 62.206156298518181 15.632857769727705 5.4004700854420653
leaf_count=566 1093 78 48 229 401 939 267 367 46 348 268 242 20 520 93 56 26 1104 557 45 394 370 146 235 21 38 2559 407 69 30
internal_value=0 0.171972 0.426245 -0.160964 -0.27278 0.259585 -0.47674 -0.350135 0.686246 0.140771 0.745368 0.180332 0.0874281 -0.164075 -0.0360784 -0.182073 0.0560456 0.080927 -0.0524947 0.634737 -0.456485 -0.381048 -0.236405 0.00571208 0.412634 -0.688591 0.813851 0.0299373 0.0236612 0.641946
internal_weight=0 848.826 481.268 367.558 276.854 293.278 298.024 210.742 187.99 222.735 176.006 90.7041 41.206 235.26 37.8092 11.984 188.675 185.066 163.663 70.5421 169.536 142.122 96.6607 54.1064 25.5288 45.4611 158.076 169.647 68.879 15.4188
internal_count=11582 8538 5954 2584 2044 2977 3044 1951 2977 1993 2875 540 380 1478 360 102 1645 1619 958 984 1571 1204 796 402 167 408 2607 1511 311 108
shrinkage=0.1


Tree=25
num_leaves=31
num_cat=0
split_feature=0 3 5 2 4 5 6 2 1 16 0 3 5 3 1 2 1 5 1 5 5 5 0 7 5 3 2 3 3 6
split_gain=83.418 42.6006 23.604 19.6451 14.0855 13.8343 13.2725 9.85375 9.70602 8.92735 6.39533 6.99542 6.36433 6.06777 5.96699 5.90336 5.66384 5.43586 5.40428 5.15782 6.99238 4.89215 4.82448 4.77838 6.81989 4.75609 4.51403 4.37234 4.62866 4.35149
threshold=1.0000000180025095e-35 22.500000000000004 6.0700184999999998 1.5000000000000002 1.0000000180025095e-35 1.1390105000000001 2.5000000000000004 2.5000000000000004 1.0000000180025095e-35 1.0000000180025095e-35 1.5000000000000002 20.500000000000004 1.0000000180025095e-35 24.500000000000004 1.0000000180025095e-35 5.5000000000000009 1.0000000180025095e-35 23.404600000000006 1.0000000180025095e-35 14.947425000000001 49.247795000000004 4.7834030000000007 2.5000000000000004 1.0000000180025095e-35 17.147060000000007 37.500000000000007 5.5000000000000009 34.500000000000007 32.500000000000007 18.500000000000004
decision_type=2 2 2 2 2 2 2 2 2 2 2 2 2 2 2 2 2 2 2 2 2 2 2 2 2 2 2 2 2 2
left_child=3 2 12 14 5 -5 -3 21 9 10 11 -4 -2 15 -1 16 -7 27 -14 26 -21 -8 -12 -13 -25 -6 -9 28 -15 -11
right_child=1 6 8 4 25 13 7 19 -10 29 22 23 18 17 -16 -17 -18 -19 -20 20 -22 -23 -24 24 -26 -27 -28 -29 -30 -31
leaf_value=-0.096309633229024083 -0.089532541279774377 -0.045171991528367622 0.064366121480392724 -0.085020440016850052 -0.052618941618016536 0.0089585477653193659 -0.081260207347718424 0.012309622792760403 0.086496237939062026 -0.071642461189140458 0.092397599371300584 0.024830662917509145 0.00088140930778118909 -0.039835338438830609 -0.015117088031353032 -0.1001539195319863 0.072191197736977339 0.077790900281408171 0.058436914796968581 0.055614765323577335 -0.070502403880689138 -0.0080250200162380741 0.033710081025802328 -0.13313165815204162 0.037731563668169002 0.032891555263307219 -0.097147561624713108 0.034315333698134144 -0.14756405272127551 0.021018848553149585
leaf_weight=59.239681009203196 6.5728860571980467 65.662195332348347 38.3180862814188 20.575250711292028 142.02958695963025 101.34313318878412 9.8022627308964712 59.519206669181585 94.076362680643797 8.0819808542728442 52.162606216967106 26.26560528203845 85.312735520303249 31.130357250571251 10.684027776122091 4.4017759338021269 16.467102311551571 4.3396650999784461 20.171460010111332 57.220613960176706 4.7620568983256808 131.31319958716631 19.149821359664202 5.3117059618234617 4.1699426360428333 6.8166437372565261 4.0223131962120524 6.7152293175458899 4.574402227997779 13.590236924588678
leaf_count=1049 48 515 559 281 1371 655 81 387 1837 82 927 288 524 225 74 35 130 23 185 721 43 742 355 41 49 44 26 37 31 217
internal_value=0 0.211421 0.443304 -0.356505 -0.256797 -0.0760017 -0.0489898 0.0501857 0.608054 0.463373 0.552629 0.346824 0.0593864 0.018271 -0.839038 0.135487 0.17797 -0.288087 0.118876 0.254013 0.459253 -0.131121 0.76638 0.0286385 -0.579876 -0.487029 0.0538075 -0.397141 -0.536373 -0.135363
internal_weight=0 705.485 373.183 408.317 338.393 189.547 332.302 266.64 261.126 167.05 145.378 74.0653 112.057 168.972 69.9237 122.212 117.81 46.7597 105.484 125.524 61.9827 141.115 71.3124 35.7473 9.48165 148.846 63.5415 42.42 35.7048 21.6722
internal_count=11582 7627 5112 3955 2832 1417 2515 2000 4355 2518 2219 937 757 1136 1123 820 785 316 709 1177 764 823 1282 378 90 1415 413 293 256 299
shrinkage=0.1


Tree=26
num_leaves=31
num_cat=0
split_feature=0 3 5 2 0 5 4 6 2 11 3 4 6 5 1 1 10 3 12 6 1 5 5 7 2 3 2 1 3 7
split_gain=70.1037 36.8983 21.0497 18.2144 13.0991 13.0896 12.6544 10.57 9.19362 8.08033 7.78288 6.60231 6.04371 5.94754 7.36412 5.85073 5.36801 6.6512 5.20484 5.70071 5.4049 7.10588 5.83894 6.8887 5.61326 4.71694 4.52854 4.59455 4.39594 4.26799
threshold=1.0000000180025095e-35 21.500000000000004 10.276400000000002 1.5000000000000002 1.5000000000000002 1.1390105000000001 1.0000000180025095e-35 2.5000000000000004 2.5000000000000004 1.0000000180025095e-35 22.500000000000004 1.0000000180025095e-35 1.5000000000000002 1.0000000180025095e-35 1.0000000180025095e-35 1.0000000180025095e-35 1.0000000180025095e-35 24.500000000000004 1.0000000180025095e-35 12.500000000000002 1.0000000180025095e-35 49.247795000000004 15.542200000000003 1.0000000180025095e-35 1.5000000000000002 25.500000000000004 5.5000000000000009 1.0000000180025095e-35 37.500000000000007 1.0000000180025095e-35
decision_type=2 2 2 2 2 2 2 2 2 2 2 2 2 2 2 2 2 2 2 2 2 2 2 2 2 2 2 2 2 2
left_child=3 2 13 15 7 -5 16 11 9 10 -6 -3 -4 -2 29 -1 -7 26 20 -20 21 22 23 24 -9 -22 27 -18 -8 -15
right_child=1 4 12 5 8 6 28 18 -10 -11 -12 -13 -14 14 -16 -17 17 -19 19 -21 25 -23 -24 -25 -26 -27 -28 -29 -30 -31
leaf_value=-0.094818499006854184 -0.083113161244089004 0.0088484260546565739 -0.056233866703435602 -0.07653024598359992 0.10297821235617224 0.064738616075002184 -0.045097124959200742 -0.11335524350880266 0.038046102168787316 0.08796123892437413 -0.03986477482084768 -0.071429387913271997 0.071591305605768402 0.015491766821872276 0.063325037971822415 -0.013686275553976524 0.0045619695751801881 -0.03861812287492445 0.001333738126962169 -0.1698031403883748 0.088167628312085869 -0.14611107388069638 0.025364738299858799 -0.073319706600452228 0.004415372948896535 0.011733596002826946 -0.091425976968038739 0.063744046824314282 0.039953622193253324 -0.041920934338809071
leaf_weight=54.402815479785204 5.9248197227716437 13.313024558126925 3.7816092967987052 41.047929927706718 4.184681460261344 12.480925686657427 116.01269093900919 4.384066514670848 108.16011080145836 6.9905250817537299 43.103908449411392 44.452726632356644 169.09486267343163 71.971692115068436 28.950172048062086 10.624178633093832 95.799679152667522 39.905418254435062 3.9357403442263594 3.8509497083723545 10.715152356773613 3.7488185837864867 38.850343655794859 19.62890937179327 52.650525316596031 32.75557667016983 4.3430429920554152 15.199072219431399 6.4130170196294776 15.788629882037638
leaf_count=1049 45 88 33 611 23 69 1045 46 1219 37 243 393 3242 567 388 74 623 284 28 26 118 24 336 140 367 155 35 125 40 109
internal_value=0 0.196529 0.463163 -0.331755 -0.00512976 -0.236752 -0.161979 -0.159581 0.21193 -0.123897 -0.272243 -0.529281 0.687952 0.146282 0.195901 -0.81563 0.0164399 -0.0342843 -0.0343402 -0.833029 0.00387653 -0.106151 -0.062178 -0.222227 -0.0463728 0.305739 0.0874634 0.126658 -0.406419 0.0516286
internal_weight=0 686.237 295.512 396.229 390.725 331.202 290.154 228.286 162.439 54.2791 47.2886 57.7658 172.876 122.635 116.71 65.027 167.728 155.247 170.52 7.78669 162.733 119.263 115.514 76.6635 57.0346 43.4707 115.342 110.999 122.426 87.7603
internal_count=11582 7627 4384 3955 3243 2832 2221 1721 1522 303 266 481 3275 1109 1064 1123 1136 1067 1240 54 1186 913 889 553 413 273 783 748 1085 676
shrinkage=0.1


Tree=27
num_leaves=31
num_cat=0
split_feature=6 2 15 2 6 3 1 2 2 4 5 12 1 3 5 5 6 0 7 0 13 3 6 5 0 6 5 7 0 1
split_gain=60.1838 27.6434 22.245 17.9976 15.8374 10.6952 9.68344 9.27431 9.11306 8.98404 8.7873 8.35744 7.8131 7.39469 6.95811 7.18363 6.89382 5.59903 5.48805 5.17979 11.6633 5.26844 5.15399 4.88373 4.7737 4.76187 6.16469 7.51896 4.75446 4.68583
threshold=11.500000000000002 1.5000000000000002 1.0000000180025095e-35 2.5000000000000004 2.5000000000000004 27.500000000000004 1.0000000180025095e-35 5.5000000000000009 2.5000000000000004 1.0000000180025095e-35 1.0874690000000002 1.0000000180025095e-35 1.0000000180025095e-35 20.500000000000004 49.247795000000004 11.460870000000002 10.500000000000002 1.5000000000000002 1.0000000180025095e-35 1.0000000180025095e-35 1.0000000180025095e-35 24.500000000000004 35.500000000000007 10.775585000000001 1.5000000000000002 35.500000000000007 5.8253064999999999 1.0000000180025095e-35 1.0000000180025095e-35 1.0000000180025095e-35
decision_type=2 2 2 2 2 2 2 2 2 2 2 2 2 2 2 2 2 2 2 2 2 2 2 2 2 2 2 2 2 2
left_child=1 6 3 11 9 7 -1 8 18 10 -3 22 14 -8 15 23 -10 -4 19 -6 21 -21 29 25 -11 26 -5 -28 -12 -2
right_child=2 4 17 12 5 -7 13 -9 16 24 28 -13 -14 -15 -16 -17 -18 -19 -20 20 -22 -23 -24 -25 -26 -27 27 -29 -30 -31
leaf_value=-0.092383843220928991 0.010002986095493979 -0.078880322712617107 -0.10033287290670317 0.10614287437962169 -0.021645790478906104 -0.028365275837712575 -0.064678451921320379 -0.068219313011989136 0.046813456430646307 -0.052476251649643063 -0.011998446151322338 -0.10111274450361894 0.078867844563247302 0.087265491375896731 -0.049865318780458634 0.057761125057542474 -0.013288751312282056 0.001029889390183821 -0.040383940940661257 0.079897636141539219 -0.11322614104092568 -0.017806759748615921 -0.017120441160339735 -0.17131936756112343 0.0012622371733822938 -0.020069895536315288 0.039219319065738861 -0.14714252816381332 0.035811123770761441 0.059353961237763653
leaf_weight=61.698650315403938 58.681076906621456 15.102971587330101 15.087211146950724 10.076350271701815 26.576307509094477 77.244775831699371 7.2293700501322729 12.819593571126459 107.95074235275388 129.13050571829081 65.525338441133499 6.8148549273610106 76.280981224030256 5.7509162873029709 8.1331080347299558 118.95259925350547 23.182868383824825 8.530812766402958 29.521602790802717 24.585021156817678 4.5511617772281161 7.1164356246590605 40.112162947654724 1.4254607968032349 18.9572270847857 19.405632574111223 11.312135566025971 2.6773165203630915 30.474118497222662 28.624623969197273
leaf_count=1164 366 215 151 70 177 494 62 124 1171 1366 534 40 1566 27 101 2075 252 61 200 161 31 50 266 22 120 149 141 22 211 193
internal_value=0 -0.186427 0.304647 0.362804 -0.111812 0.0393768 -0.758673 0.144971 0.192419 -0.294709 -0.0797658 0.0678049 0.522306 0.0264032 0.404159 0.448973 0.361881 -0.637207 -0.0482087 0.118892 0.364733 0.579647 0.125511 0.10815 -0.45597 0.167874 0.465075 0.0355319 0.0317825 0.261835
internal_weight=0 647.418 406.114 382.496 572.739 313.549 74.6789 236.304 223.484 259.19 111.102 134.233 248.264 12.9803 171.983 163.849 131.134 23.618 92.3505 62.8289 36.2526 31.7015 127.418 44.8969 148.088 43.4714 24.0658 13.9895 95.9995 87.3057
internal_count=11582 6359 5223 5011 5106 2660 1253 2166 2042 2446 960 865 4146 89 2580 2479 1423 212 619 419 242 211 825 404 1486 382 233 163 745 559
shrinkage=0.1


Tree=28
num_leaves=31
num_cat=0
split_feature=5 3 1 6 2 2 9 3 2 5 2 4 6 3 5 1 2 0 12 0 6 5 3 2 0 2 16 0 5 5
split_gain=51.2107 36.8861 18.4924 13.5993 11.2758 10.4944 7.899 10.039 7.8521 7.84292 7.39813 7.20287 7.04298 6.88337 6.80751 5.98928 5.98358 5.95133 5.94813 9.53246 5.87655 5.75422 4.94487 4.74616 4.7458 4.9695 4.68674 6.34216 5.73289 4.28266
threshold=4.3542865000000015 22.500000000000004 1.0000000180025095e-35 11.500000000000002 1.5000000000000002 3.5000000000000004 1.0000000180025095e-35 28.500000000000004 5.5000000000000009 1.0874690000000002 5.5000000000000009 1.0000000180025095e-35 2.5000000000000004 18.500000000000004 49.247795000000004 1.5000000000000002 3.5000000000000004 1.5000000000000002 1.0000000180025095e-35 1.5000000000000002 5.5000000000000009 7.0139115000000016 51.500000000000007 4.5000000000000009 1.0000000180025095e-35 3.5000000000000004 1.0000000180025095e-35 1.5000000000000002 23.761630000000004 1.4620225000000002
decision_type=2 2 2 2 2 2 2 2 2 2 2 2 2 2 2 2 2 2 2 2 2 2 2 2 2 2 2 2 2 2
left_child=4 2 5 6 -1 13 12 -8 -7 -6 11 24 -3 -2 18 16 -14 23 22 -20 -9 -18 -5 -13 29 -26 27 -15 -28 -11
right_child=1 3 -4 14 9 8 7 20 -10 10 -12 17 15 26 -16 -17 21 -19 19 -21 -22 -23 -24 -25 25 -27 28 -29 -30 -31
leaf_value=-0.076926620773503956 0.062857467488972016 -0.069372488614112479 0.075855958875567661 0.031303687817589708 -0.060807898327618383 0.060549297145948394 0.088096778357851083 0.027118238459915841 -0.029919223832627625 0.035445912410002584 -0.087370114600693299 -0.034976444319408904 -0.039700303066000794 -0.0043268974030694395 -0.049775204018556979 0.045352153905002017 -0.096622472665751566 0.018279207970910587 -0.17689647847337345 0.037413588928902092 -0.071312607831670788 0.041310880426379343 -0.069082421328627672 -0.14671961499892652 0.0074113692224311301 0.082617343948287542 -0.10154678694461404 0.05866389103849106 0.059590417766626935 -0.026124953596942779
leaf_weight=48.771899454295635 19.874102987349033 40.67178700864315 96.862086370587349 126.30286902189255 49.511968351900578 84.651824153959751 13.131874047219751 12.556436479091646 10.820069324225186 15.401563532650469 13.962646842002867 91.198289893567562 92.787899017333984 101.42563365772367 14.506555486470459 12.104471057653425 3.625477664172652 21.811406508088112 3.7887871861457807 4.5897192247211933 11.733113683760164 18.244332078844309 5.1052430123090735 3.9663328081369391 23.070477228611708 14.190942157059906 8.7213057391345483 18.974099386483431 2.9563518129289141 42.38963570818305
leaf_count=913 251 373 2037 1111 669 1464 87 99 155 139 129 921 719 841 94 57 24 127 26 39 78 134 36 31 141 82 83 322 34 366
internal_value=0 0.154268 0.388151 -0.069935 -0.32607 0.243142 -0.238812 0.176547 0.502963 -0.247611 -0.168637 -0.122207 -0.331645 0.0798953 0.154284 -0.215471 -0.286097 -0.288353 0.22195 -0.594981 -0.20429 0.184449 0.274037 -0.396337 0.0822594 0.360534 -0.00266618 0.0559998 -0.607528 -0.097161
internal_weight=0 703.434 344.285 359.149 324.275 247.423 204.855 37.4214 95.4719 275.503 225.991 212.029 167.434 151.951 154.293 126.762 114.658 116.976 139.787 8.37851 24.2896 21.8698 131.408 95.1646 95.0526 37.2614 132.077 120.4 11.6777 57.7912
internal_count=11582 8064 5187 2877 3518 3150 1571 264 1619 2605 1936 1807 1307 1531 1306 934 877 1079 1212 65 177 158 1147 952 728 223 1280 1163 117 505
shrinkage=0.1


Tree=29
num_leaves=31
num_cat=0
split_feature=0 3 1 2 5 14 5 4 7 5 5 0 1 6 1 11 5 2 2 6 2 10 3 3 5 3 3 5 3 3
split_gain=44.9496 26.6601 21.8995 14.3482 11.5244 11.1197 9.77131 8.60456 8.23406 8.17629 6.8634 6.59791 5.631 5.52939 5.45439 5.00618 6.28763 4.62042 4.47677 5.05978 4.04553 4.04263 4.76609 3.99994 3.99366 6.96562 3.81753 3.76652 3.76344 3.8994
threshold=1.0000000180025095e-35 26.500000000000004 1.0000000180025095e-35 1.5000000000000002 16.332930000000001 1.0000000180025095e-35 1.1390105000000001 1.0000000180025095e-35 1.0000000180025095e-35 49.247795000000004 3.1268900000000008 1.5000000000000002 1.0000000180025095e-35 1.5000000000000002 1.5000000000000002 1.0000000180025095e-35 6.7552640000000013 1.5000000000000002 3.5000000000000004 19.500000000000004 5.5000000000000009 1.0000000180025095e-35 24.500000000000004 37.500000000000007 55.559940000000005 20.500000000000004 37.500000000000007 1.0874690000000002 34.500000000000007 32.500000000000007
decision_type=2 2 2 2 2 2 2 2 2 2 2 2 2 2 2 2 2 2 2 2 2 2 2 2 2 2 2 2 2 2
left_child=3 2 4 12 8 11 -5 21 17 13 -4 -6 -1 -7 15 18 -17 -2 -3 -20 27 -8 -23 -16 25 -11 -9 -19 29 -24
right_child=1 14 10 6 5 9 7 26 -10 24 -12 -13 -14 -15 23 16 -18 20 19 -21 -22 22 28 -25 -26 -27 -28 -29 -30 -31
leaf_value=-0.090877329423419181 -0.06990664196420307 -0.041599187230894542 -0.0049785173324168224 -0.069428169998136294 -0.10876172475809931 -0.085458005693756181 0.056242802109231785 -0.03866500023787027 -0.033561674009807224 0.10573382084708605 0.076714405966502197 0.012774042071015743 -0.008084612908896071 0.067012503974939464 -0.016699646952668616 -0.082317009983094838 0.063224998850004543 -0.044699152611778745 -0.027466218625294421 0.073936835980834947 -0.043876540559135521 0.0073738456298183055 -0.034538955921568998 0.04942019275065123 0.024411589424202122 -0.1939737766179436 0.041465541318554615 0.023624896255304312 0.037458728919123503 -0.14274183987325451
